
        <?xml version="1.0"?>
        <MethodSetup Method="BDT::bdt">
        <GeneralInfo>
        <Info name="TMVA Release" value=""/>
        <Info name="ROOT Release" value=""/>
        <Info name="Creator" value="mlglue"/>
        <Info name="Date" value=""/>
        <Info name="Host" value=""/>
        <Info name="Dir" value=""/>
        <Info name="Training events" value="-1"/>
        <Info name="TrainingTime" value="-1"/>
        <Info name="AnalysisType" value="Classification"/>
        </GeneralInfo>
        <Options>
        <Option name="NTrees" modified="Yes">100</Option>
        <Option name="MaxDepth" modified="Yes">3</Option>
        <Option name="BoostType" modified="Yes">Grad</Option>
        <Option name="Shrinkage" modified="Yes">0.1</Option>
        <Option name="UseNvars" modified="Yes">5</Option>
        </Options>

        <Variables NVar="5">
        <Variable VarIndex="0" Expression="Jet25_pt" Label="Jet25_pt" Title="Jet25_pt" Unit="" Internal="Jet25_pt" Type="F" Min="0.0000000000000000000000000000000000000000000000000000000000000000E+00" Max="0.0000000000000000000000000000000000000000000000000000000000000000E+00"/>
<Variable VarIndex="1" Expression="Jet25_qg" Label="Jet25_qg" Title="Jet25_qg" Unit="" Internal="Jet25_qg" Type="F" Min="0.0000000000000000000000000000000000000000000000000000000000000000E+00" Max="0.0000000000000000000000000000000000000000000000000000000000000000E+00"/>
<Variable VarIndex="2" Expression="Jet25_lepdrmin" Label="Jet25_lepdrmin" Title="Jet25_lepdrmin" Unit="" Internal="Jet25_lepdrmin" Type="F" Min="0.0000000000000000000000000000000000000000000000000000000000000000E+00" Max="0.0000000000000000000000000000000000000000000000000000000000000000E+00"/>
<Variable VarIndex="3" Expression="Jet25_lepdrmax" Label="Jet25_lepdrmax" Title="Jet25_lepdrmax" Unit="" Internal="Jet25_lepdrmax" Type="F" Min="0.0000000000000000000000000000000000000000000000000000000000000000E+00" Max="0.0000000000000000000000000000000000000000000000000000000000000000E+00"/>
<Variable VarIndex="4" Expression="Jet25_bDiscriminator" Label="Jet25_bDiscriminator" Title="Jet25_bDiscriminator" Unit="" Internal="Jet25_bDiscriminator" Type="F" Min="0.0000000000000000000000000000000000000000000000000000000000000000E+00" Max="0.0000000000000000000000000000000000000000000000000000000000000000E+00"/>

        </Variables>

        <Classes NClass="2">
        <Class Name="Background" Index="0"/>
<Class Name="Signal" Index="1"/>

        </Classes>

        <Targets NTrgt="0">
        
        </Targets>

        <Transformations NTransformations="0"/>
        <MVAPdfs/>
        <Weights NTrees="100" AnalysisType="1">
        <BinaryTree type="DecisionTree" boostWeight="0.0" itree="0">
    <Node pos="c" depth="1" NCoef="0"     IVar="2" Cut="     1.340300E+00" cType="1"     res="     0.000000E+00" rms="0.0"     purity="0.00000000E+00" nType="0">
        <Node pos="l" depth="2" NCoef="0"     IVar="4" Cut="     6.357100E-01" cType="1"     res="     0.000000E+00" rms="0.0"     purity="0.00000000E+00" nType="0">
            <Node pos="l" depth="3" NCoef="0"     IVar="0" Cut="     1.246700E+02" cType="1"     res="     0.000000E+00" rms="0.0"     purity="0.00000000E+00" nType="0">
                <Node pos="l" depth="4" NCoef="0"     IVar="-1" Cut="     0.000000E+00" cType="1"     res="     1.009120E-01" rms="0.0e-00"     purity="0.00000000E+00" nType="-99">
                </Node>
                <Node pos="r" depth="4" NCoef="0"     IVar="-1" Cut="     0.000000E+00" cType="1"     res="    -1.747380E-02" rms="0.0e-00"     purity="0.00000000E+00" nType="-99">
                </Node>
            </Node>
            <Node pos="r" depth="3" NCoef="0"     IVar="4" Cut="     8.583040E-01" cType="1"     res="     0.000000E+00" rms="0.0"     purity="0.00000000E+00" nType="0">
                <Node pos="l" depth="4" NCoef="0"     IVar="-1" Cut="     0.000000E+00" cType="1"     res="    -9.577790E-02" rms="0.0e-00"     purity="0.00000000E+00" nType="-99">
                </Node>
                <Node pos="r" depth="4" NCoef="0"     IVar="-1" Cut="     0.000000E+00" cType="1"     res="    -1.874150E-01" rms="0.0e-00"     purity="0.00000000E+00" nType="-99">
                </Node>
            </Node>
        </Node>
        <Node pos="r" depth="2" NCoef="0"     IVar="0" Cut="     5.951870E+01" cType="1"     res="     0.000000E+00" rms="0.0"     purity="0.00000000E+00" nType="0">
            <Node pos="l" depth="3" NCoef="0"     IVar="3" Cut="     3.202200E+00" cType="1"     res="     0.000000E+00" rms="0.0"     purity="0.00000000E+00" nType="0">
                <Node pos="l" depth="4" NCoef="0"     IVar="-1" Cut="     0.000000E+00" cType="1"     res="    -2.302610E-02" rms="0.0e-00"     purity="0.00000000E+00" nType="-99">
                </Node>
                <Node pos="r" depth="4" NCoef="0"     IVar="-1" Cut="     0.000000E+00" cType="1"     res="    -1.410920E-01" rms="0.0e-00"     purity="0.00000000E+00" nType="-99">
                </Node>
            </Node>
            <Node pos="r" depth="3" NCoef="0"     IVar="2" Cut="     1.870510E+00" cType="1"     res="     0.000000E+00" rms="0.0"     purity="0.00000000E+00" nType="0">
                <Node pos="l" depth="4" NCoef="0"     IVar="-1" Cut="     0.000000E+00" cType="1"     res="    -1.180890E-01" rms="0.0e-00"     purity="0.00000000E+00" nType="-99">
                </Node>
                <Node pos="r" depth="4" NCoef="0"     IVar="-1" Cut="     0.000000E+00" cType="1"     res="    -1.774040E-01" rms="0.0e-00"     purity="0.00000000E+00" nType="-99">
                </Node>
            </Node>
        </Node>
    </Node>
</BinaryTree>
<BinaryTree type="DecisionTree" boostWeight="0.0" itree="1">
    <Node pos="c" depth="1" NCoef="0"     IVar="2" Cut="     1.498690E+00" cType="1"     res="     0.000000E+00" rms="0.0"     purity="0.00000000E+00" nType="0">
        <Node pos="l" depth="2" NCoef="0"     IVar="4" Cut="     6.709790E-01" cType="1"     res="     0.000000E+00" rms="0.0"     purity="0.00000000E+00" nType="0">
            <Node pos="l" depth="3" NCoef="0"     IVar="0" Cut="     1.106060E+02" cType="1"     res="     0.000000E+00" rms="0.0"     purity="0.00000000E+00" nType="0">
                <Node pos="l" depth="4" NCoef="0"     IVar="-1" Cut="     0.000000E+00" cType="1"     res="     8.581480E-02" rms="0.0e-00"     purity="0.00000000E+00" nType="-99">
                </Node>
                <Node pos="r" depth="4" NCoef="0"     IVar="-1" Cut="     0.000000E+00" cType="1"     res="    -1.815050E-02" rms="0.0e-00"     purity="0.00000000E+00" nType="-99">
                </Node>
            </Node>
            <Node pos="r" depth="3" NCoef="0"     IVar="4" Cut="     8.878020E-01" cType="1"     res="     0.000000E+00" rms="0.0"     purity="0.00000000E+00" nType="0">
                <Node pos="l" depth="4" NCoef="0"     IVar="-1" Cut="     0.000000E+00" cType="1"     res="    -1.066430E-01" rms="0.0e-00"     purity="0.00000000E+00" nType="-99">
                </Node>
                <Node pos="r" depth="4" NCoef="0"     IVar="-1" Cut="     0.000000E+00" cType="1"     res="    -1.753160E-01" rms="0.0e-00"     purity="0.00000000E+00" nType="-99">
                </Node>
            </Node>
        </Node>
        <Node pos="r" depth="2" NCoef="0"     IVar="0" Cut="     5.627560E+01" cType="1"     res="     0.000000E+00" rms="0.0"     purity="0.00000000E+00" nType="0">
            <Node pos="l" depth="3" NCoef="0"     IVar="3" Cut="     3.301980E+00" cType="1"     res="     0.000000E+00" rms="0.0"     purity="0.00000000E+00" nType="0">
                <Node pos="l" depth="4" NCoef="0"     IVar="-1" Cut="     0.000000E+00" cType="1"     res="    -3.503320E-02" rms="0.0e-00"     purity="0.00000000E+00" nType="-99">
                </Node>
                <Node pos="r" depth="4" NCoef="0"     IVar="-1" Cut="     0.000000E+00" cType="1"     res="    -1.416470E-01" rms="0.0e-00"     purity="0.00000000E+00" nType="-99">
                </Node>
            </Node>
            <Node pos="r" depth="3" NCoef="0"     IVar="0" Cut="     8.007380E+01" cType="1"     res="     0.000000E+00" rms="0.0"     purity="0.00000000E+00" nType="0">
                <Node pos="l" depth="4" NCoef="0"     IVar="-1" Cut="     0.000000E+00" cType="1"     res="    -1.088040E-01" rms="0.0e-00"     purity="0.00000000E+00" nType="-99">
                </Node>
                <Node pos="r" depth="4" NCoef="0"     IVar="-1" Cut="     0.000000E+00" cType="1"     res="    -1.618110E-01" rms="0.0e-00"     purity="0.00000000E+00" nType="-99">
                </Node>
            </Node>
        </Node>
    </Node>
</BinaryTree>
<BinaryTree type="DecisionTree" boostWeight="0.0" itree="2">
    <Node pos="c" depth="1" NCoef="0"     IVar="2" Cut="     1.299700E+00" cType="1"     res="     0.000000E+00" rms="0.0"     purity="0.00000000E+00" nType="0">
        <Node pos="l" depth="2" NCoef="0"     IVar="4" Cut="     5.316270E-01" cType="1"     res="     0.000000E+00" rms="0.0"     purity="0.00000000E+00" nType="0">
            <Node pos="l" depth="3" NCoef="0"     IVar="0" Cut="     1.690330E+02" cType="1"     res="     0.000000E+00" rms="0.0"     purity="0.00000000E+00" nType="0">
                <Node pos="l" depth="4" NCoef="0"     IVar="-1" Cut="     0.000000E+00" cType="1"     res="     8.496190E-02" rms="0.0e-00"     purity="0.00000000E+00" nType="-99">
                </Node>
                <Node pos="r" depth="4" NCoef="0"     IVar="-1" Cut="     0.000000E+00" cType="1"     res="    -4.573670E-02" rms="0.0e-00"     purity="0.00000000E+00" nType="-99">
                </Node>
            </Node>
            <Node pos="r" depth="3" NCoef="0"     IVar="4" Cut="     8.444320E-01" cType="1"     res="     0.000000E+00" rms="0.0"     purity="0.00000000E+00" nType="0">
                <Node pos="l" depth="4" NCoef="0"     IVar="-1" Cut="     0.000000E+00" cType="1"     res="    -5.771950E-02" rms="0.0e-00"     purity="0.00000000E+00" nType="-99">
                </Node>
                <Node pos="r" depth="4" NCoef="0"     IVar="-1" Cut="     0.000000E+00" cType="1"     res="    -1.554650E-01" rms="0.0e-00"     purity="0.00000000E+00" nType="-99">
                </Node>
            </Node>
        </Node>
        <Node pos="r" depth="2" NCoef="0"     IVar="0" Cut="     6.719670E+01" cType="1"     res="     0.000000E+00" rms="0.0"     purity="0.00000000E+00" nType="0">
            <Node pos="l" depth="3" NCoef="0"     IVar="2" Cut="     1.808970E+00" cType="1"     res="     0.000000E+00" rms="0.0"     purity="0.00000000E+00" nType="0">
                <Node pos="l" depth="4" NCoef="0"     IVar="-1" Cut="     0.000000E+00" cType="1"     res="     5.039900E-03" rms="0.0e-00"     purity="0.00000000E+00" nType="-99">
                </Node>
                <Node pos="r" depth="4" NCoef="0"     IVar="-1" Cut="     0.000000E+00" cType="1"     res="    -8.220800E-02" rms="0.0e-00"     purity="0.00000000E+00" nType="-99">
                </Node>
            </Node>
            <Node pos="r" depth="3" NCoef="0"     IVar="0" Cut="     1.238600E+02" cType="1"     res="     0.000000E+00" rms="0.0"     purity="0.00000000E+00" nType="0">
                <Node pos="l" depth="4" NCoef="0"     IVar="-1" Cut="     0.000000E+00" cType="1"     res="    -1.119000E-01" rms="0.0e-00"     purity="0.00000000E+00" nType="-99">
                </Node>
                <Node pos="r" depth="4" NCoef="0"     IVar="-1" Cut="     0.000000E+00" cType="1"     res="    -1.644290E-01" rms="0.0e-00"     purity="0.00000000E+00" nType="-99">
                </Node>
            </Node>
        </Node>
    </Node>
</BinaryTree>
<BinaryTree type="DecisionTree" boostWeight="0.0" itree="3">
    <Node pos="c" depth="1" NCoef="0"     IVar="2" Cut="     1.243540E+00" cType="1"     res="     0.000000E+00" rms="0.0"     purity="0.00000000E+00" nType="0">
        <Node pos="l" depth="2" NCoef="0"     IVar="4" Cut="     6.709790E-01" cType="1"     res="     0.000000E+00" rms="0.0"     purity="0.00000000E+00" nType="0">
            <Node pos="l" depth="3" NCoef="0"     IVar="0" Cut="     1.690330E+02" cType="1"     res="     0.000000E+00" rms="0.0"     purity="0.00000000E+00" nType="0">
                <Node pos="l" depth="4" NCoef="0"     IVar="-1" Cut="     0.000000E+00" cType="1"     res="     7.746680E-02" rms="0.0e-00"     purity="0.00000000E+00" nType="-99">
                </Node>
                <Node pos="r" depth="4" NCoef="0"     IVar="-1" Cut="     0.000000E+00" cType="1"     res="    -4.098220E-02" rms="0.0e-00"     purity="0.00000000E+00" nType="-99">
                </Node>
            </Node>
            <Node pos="r" depth="3" NCoef="0"     IVar="4" Cut="     9.148000E-01" cType="1"     res="     0.000000E+00" rms="0.0"     purity="0.00000000E+00" nType="0">
                <Node pos="l" depth="4" NCoef="0"     IVar="-1" Cut="     0.000000E+00" cType="1"     res="    -9.217950E-02" rms="0.0e-00"     purity="0.00000000E+00" nType="-99">
                </Node>
                <Node pos="r" depth="4" NCoef="0"     IVar="-1" Cut="     0.000000E+00" cType="1"     res="    -1.533050E-01" rms="0.0e-00"     purity="0.00000000E+00" nType="-99">
                </Node>
            </Node>
        </Node>
        <Node pos="r" depth="2" NCoef="0"     IVar="0" Cut="     6.006850E+01" cType="1"     res="     0.000000E+00" rms="0.0"     purity="0.00000000E+00" nType="0">
            <Node pos="l" depth="3" NCoef="0"     IVar="4" Cut="     7.634770E-01" cType="1"     res="     0.000000E+00" rms="0.0"     purity="0.00000000E+00" nType="0">
                <Node pos="l" depth="4" NCoef="0"     IVar="-1" Cut="     0.000000E+00" cType="1"     res="    -1.569910E-02" rms="0.0e-00"     purity="0.00000000E+00" nType="-99">
                </Node>
                <Node pos="r" depth="4" NCoef="0"     IVar="-1" Cut="     0.000000E+00" cType="1"     res="    -1.610940E-01" rms="0.0e-00"     purity="0.00000000E+00" nType="-99">
                </Node>
            </Node>
            <Node pos="r" depth="3" NCoef="0"     IVar="0" Cut="     1.122960E+02" cType="1"     res="     0.000000E+00" rms="0.0"     purity="0.00000000E+00" nType="0">
                <Node pos="l" depth="4" NCoef="0"     IVar="-1" Cut="     0.000000E+00" cType="1"     res="    -9.138440E-02" rms="0.0e-00"     purity="0.00000000E+00" nType="-99">
                </Node>
                <Node pos="r" depth="4" NCoef="0"     IVar="-1" Cut="     0.000000E+00" cType="1"     res="    -1.482090E-01" rms="0.0e-00"     purity="0.00000000E+00" nType="-99">
                </Node>
            </Node>
        </Node>
    </Node>
</BinaryTree>
<BinaryTree type="DecisionTree" boostWeight="0.0" itree="4">
    <Node pos="c" depth="1" NCoef="0"     IVar="2" Cut="     1.636340E+00" cType="1"     res="     0.000000E+00" rms="0.0"     purity="0.00000000E+00" nType="0">
        <Node pos="l" depth="2" NCoef="0"     IVar="4" Cut="     5.319290E-01" cType="1"     res="     0.000000E+00" rms="0.0"     purity="0.00000000E+00" nType="0">
            <Node pos="l" depth="3" NCoef="0"     IVar="2" Cut="     9.633920E-01" cType="1"     res="     0.000000E+00" rms="0.0"     purity="0.00000000E+00" nType="0">
                <Node pos="l" depth="4" NCoef="0"     IVar="-1" Cut="     0.000000E+00" cType="1"     res="     8.167910E-02" rms="0.0e-00"     purity="0.00000000E+00" nType="-99">
                </Node>
                <Node pos="r" depth="4" NCoef="0"     IVar="-1" Cut="     0.000000E+00" cType="1"     res="     2.129280E-02" rms="0.0e-00"     purity="0.00000000E+00" nType="-99">
                </Node>
            </Node>
            <Node pos="r" depth="3" NCoef="0"     IVar="4" Cut="     8.428360E-01" cType="1"     res="     0.000000E+00" rms="0.0"     purity="0.00000000E+00" nType="0">
                <Node pos="l" depth="4" NCoef="0"     IVar="-1" Cut="     0.000000E+00" cType="1"     res="    -5.611980E-02" rms="0.0e-00"     purity="0.00000000E+00" nType="-99">
                </Node>
                <Node pos="r" depth="4" NCoef="0"     IVar="-1" Cut="     0.000000E+00" cType="1"     res="    -1.416430E-01" rms="0.0e-00"     purity="0.00000000E+00" nType="-99">
                </Node>
            </Node>
        </Node>
        <Node pos="r" depth="2" NCoef="0"     IVar="0" Cut="     5.038010E+01" cType="1"     res="     0.000000E+00" rms="0.0"     purity="0.00000000E+00" nType="0">
            <Node pos="l" depth="3" NCoef="0"     IVar="3" Cut="     3.295800E+00" cType="1"     res="     0.000000E+00" rms="0.0"     purity="0.00000000E+00" nType="0">
                <Node pos="l" depth="4" NCoef="0"     IVar="-1" Cut="     0.000000E+00" cType="1"     res="    -2.698230E-02" rms="0.0e-00"     purity="0.00000000E+00" nType="-99">
                </Node>
                <Node pos="r" depth="4" NCoef="0"     IVar="-1" Cut="     0.000000E+00" cType="1"     res="    -1.291070E-01" rms="0.0e-00"     purity="0.00000000E+00" nType="-99">
                </Node>
            </Node>
            <Node pos="r" depth="3" NCoef="0"     IVar="2" Cut="     2.020270E+00" cType="1"     res="     0.000000E+00" rms="0.0"     purity="0.00000000E+00" nType="0">
                <Node pos="l" depth="4" NCoef="0"     IVar="-1" Cut="     0.000000E+00" cType="1"     res="    -8.973270E-02" rms="0.0e-00"     purity="0.00000000E+00" nType="-99">
                </Node>
                <Node pos="r" depth="4" NCoef="0"     IVar="-1" Cut="     0.000000E+00" cType="1"     res="    -1.336020E-01" rms="0.0e-00"     purity="0.00000000E+00" nType="-99">
                </Node>
            </Node>
        </Node>
    </Node>
</BinaryTree>
<BinaryTree type="DecisionTree" boostWeight="0.0" itree="5">
    <Node pos="c" depth="1" NCoef="0"     IVar="2" Cut="     1.593150E+00" cType="1"     res="     0.000000E+00" rms="0.0"     purity="0.00000000E+00" nType="0">
        <Node pos="l" depth="2" NCoef="0"     IVar="4" Cut="     6.367530E-01" cType="1"     res="     0.000000E+00" rms="0.0"     purity="0.00000000E+00" nType="0">
            <Node pos="l" depth="3" NCoef="0"     IVar="0" Cut="     1.106060E+02" cType="1"     res="     0.000000E+00" rms="0.0"     purity="0.00000000E+00" nType="0">
                <Node pos="l" depth="4" NCoef="0"     IVar="-1" Cut="     0.000000E+00" cType="1"     res="     6.031900E-02" rms="0.0e-00"     purity="0.00000000E+00" nType="-99">
                </Node>
                <Node pos="r" depth="4" NCoef="0"     IVar="-1" Cut="     0.000000E+00" cType="1"     res="    -2.560470E-02" rms="0.0e-00"     purity="0.00000000E+00" nType="-99">
                </Node>
            </Node>
            <Node pos="r" depth="3" NCoef="0"     IVar="4" Cut="     8.899300E-01" cType="1"     res="     0.000000E+00" rms="0.0"     purity="0.00000000E+00" nType="0">
                <Node pos="l" depth="4" NCoef="0"     IVar="-1" Cut="     0.000000E+00" cType="1"     res="    -7.408360E-02" rms="0.0e-00"     purity="0.00000000E+00" nType="-99">
                </Node>
                <Node pos="r" depth="4" NCoef="0"     IVar="-1" Cut="     0.000000E+00" cType="1"     res="    -1.376640E-01" rms="0.0e-00"     purity="0.00000000E+00" nType="-99">
                </Node>
            </Node>
        </Node>
        <Node pos="r" depth="2" NCoef="0"     IVar="0" Cut="     5.038010E+01" cType="1"     res="     0.000000E+00" rms="0.0"     purity="0.00000000E+00" nType="0">
            <Node pos="l" depth="3" NCoef="0"     IVar="3" Cut="     3.174130E+00" cType="1"     res="     0.000000E+00" rms="0.0"     purity="0.00000000E+00" nType="0">
                <Node pos="l" depth="4" NCoef="0"     IVar="-1" Cut="     0.000000E+00" cType="1"     res="    -1.765850E-02" rms="0.0e-00"     purity="0.00000000E+00" nType="-99">
                </Node>
                <Node pos="r" depth="4" NCoef="0"     IVar="-1" Cut="     0.000000E+00" cType="1"     res="    -1.064990E-01" rms="0.0e-00"     purity="0.00000000E+00" nType="-99">
                </Node>
            </Node>
            <Node pos="r" depth="3" NCoef="0"     IVar="2" Cut="     2.020270E+00" cType="1"     res="     0.000000E+00" rms="0.0"     purity="0.00000000E+00" nType="0">
                <Node pos="l" depth="4" NCoef="0"     IVar="-1" Cut="     0.000000E+00" cType="1"     res="    -8.201410E-02" rms="0.0e-00"     purity="0.00000000E+00" nType="-99">
                </Node>
                <Node pos="r" depth="4" NCoef="0"     IVar="-1" Cut="     0.000000E+00" cType="1"     res="    -1.250420E-01" rms="0.0e-00"     purity="0.00000000E+00" nType="-99">
                </Node>
            </Node>
        </Node>
    </Node>
</BinaryTree>
<BinaryTree type="DecisionTree" boostWeight="0.0" itree="6">
    <Node pos="c" depth="1" NCoef="0"     IVar="2" Cut="     1.140120E+00" cType="1"     res="     0.000000E+00" rms="0.0"     purity="0.00000000E+00" nType="0">
        <Node pos="l" depth="2" NCoef="0"     IVar="4" Cut="     4.379270E-01" cType="1"     res="     0.000000E+00" rms="0.0"     purity="0.00000000E+00" nType="0">
            <Node pos="l" depth="3" NCoef="0"     IVar="0" Cut="     2.473920E+02" cType="1"     res="     0.000000E+00" rms="0.0"     purity="0.00000000E+00" nType="0">
                <Node pos="l" depth="4" NCoef="0"     IVar="-1" Cut="     0.000000E+00" cType="1"     res="     6.865400E-02" rms="0.0e-00"     purity="0.00000000E+00" nType="-99">
                </Node>
                <Node pos="r" depth="4" NCoef="0"     IVar="-1" Cut="     0.000000E+00" cType="1"     res="    -8.964580E-02" rms="0.0e-00"     purity="0.00000000E+00" nType="-99">
                </Node>
            </Node>
            <Node pos="r" depth="3" NCoef="0"     IVar="4" Cut="     7.718230E-01" cType="1"     res="     0.000000E+00" rms="0.0"     purity="0.00000000E+00" nType="0">
                <Node pos="l" depth="4" NCoef="0"     IVar="-1" Cut="     0.000000E+00" cType="1"     res="    -2.628150E-02" rms="0.0e-00"     purity="0.00000000E+00" nType="-99">
                </Node>
                <Node pos="r" depth="4" NCoef="0"     IVar="-1" Cut="     0.000000E+00" cType="1"     res="    -1.157670E-01" rms="0.0e-00"     purity="0.00000000E+00" nType="-99">
                </Node>
            </Node>
        </Node>
        <Node pos="r" depth="2" NCoef="0"     IVar="0" Cut="     7.954580E+01" cType="1"     res="     0.000000E+00" rms="0.0"     purity="0.00000000E+00" nType="0">
            <Node pos="l" depth="3" NCoef="0"     IVar="4" Cut="     7.608580E-01" cType="1"     res="     0.000000E+00" rms="0.0"     purity="0.00000000E+00" nType="0">
                <Node pos="l" depth="4" NCoef="0"     IVar="-1" Cut="     0.000000E+00" cType="1"     res="    -9.379700E-03" rms="0.0e-00"     purity="0.00000000E+00" nType="-99">
                </Node>
                <Node pos="r" depth="4" NCoef="0"     IVar="-1" Cut="     0.000000E+00" cType="1"     res="    -1.372420E-01" rms="0.0e-00"     purity="0.00000000E+00" nType="-99">
                </Node>
            </Node>
            <Node pos="r" depth="3" NCoef="0"     IVar="0" Cut="     1.238600E+02" cType="1"     res="     0.000000E+00" rms="0.0"     purity="0.00000000E+00" nType="0">
                <Node pos="l" depth="4" NCoef="0"     IVar="-1" Cut="     0.000000E+00" cType="1"     res="    -9.109470E-02" rms="0.0e-00"     purity="0.00000000E+00" nType="-99">
                </Node>
                <Node pos="r" depth="4" NCoef="0"     IVar="-1" Cut="     0.000000E+00" cType="1"     res="    -1.321680E-01" rms="0.0e-00"     purity="0.00000000E+00" nType="-99">
                </Node>
            </Node>
        </Node>
    </Node>
</BinaryTree>
<BinaryTree type="DecisionTree" boostWeight="0.0" itree="7">
    <Node pos="c" depth="1" NCoef="0"     IVar="2" Cut="     1.812440E+00" cType="1"     res="     0.000000E+00" rms="0.0"     purity="0.00000000E+00" nType="0">
        <Node pos="l" depth="2" NCoef="0"     IVar="4" Cut="     6.901890E-01" cType="1"     res="     0.000000E+00" rms="0.0"     purity="0.00000000E+00" nType="0">
            <Node pos="l" depth="3" NCoef="0"     IVar="3" Cut="     2.035610E+00" cType="1"     res="     0.000000E+00" rms="0.0"     purity="0.00000000E+00" nType="0">
                <Node pos="l" depth="4" NCoef="0"     IVar="-1" Cut="     0.000000E+00" cType="1"     res="     7.185750E-02" rms="0.0e-00"     purity="0.00000000E+00" nType="-99">
                </Node>
                <Node pos="r" depth="4" NCoef="0"     IVar="-1" Cut="     0.000000E+00" cType="1"     res="     1.137730E-02" rms="0.0e-00"     purity="0.00000000E+00" nType="-99">
                </Node>
            </Node>
            <Node pos="r" depth="3" NCoef="0"     IVar="4" Cut="     9.147980E-01" cType="1"     res="     0.000000E+00" rms="0.0"     purity="0.00000000E+00" nType="0">
                <Node pos="l" depth="4" NCoef="0"     IVar="-1" Cut="     0.000000E+00" cType="1"     res="    -7.363240E-02" rms="0.0e-00"     purity="0.00000000E+00" nType="-99">
                </Node>
                <Node pos="r" depth="4" NCoef="0"     IVar="-1" Cut="     0.000000E+00" cType="1"     res="    -1.319630E-01" rms="0.0e-00"     purity="0.00000000E+00" nType="-99">
                </Node>
            </Node>
        </Node>
        <Node pos="r" depth="2" NCoef="0"     IVar="3" Cut="     3.169860E+00" cType="1"     res="     0.000000E+00" rms="0.0"     purity="0.00000000E+00" nType="0">
            <Node pos="l" depth="3" NCoef="0"     IVar="0" Cut="     6.259770E+01" cType="1"     res="     0.000000E+00" rms="0.0"     purity="0.00000000E+00" nType="0">
                <Node pos="l" depth="4" NCoef="0"     IVar="-1" Cut="     0.000000E+00" cType="1"     res="    -3.395270E-02" rms="0.0e-00"     purity="0.00000000E+00" nType="-99">
                </Node>
                <Node pos="r" depth="4" NCoef="0"     IVar="-1" Cut="     0.000000E+00" cType="1"     res="    -1.046350E-01" rms="0.0e-00"     purity="0.00000000E+00" nType="-99">
                </Node>
            </Node>
            <Node pos="r" depth="3" NCoef="0"     IVar="0" Cut="     2.856770E+01" cType="1"     res="     0.000000E+00" rms="0.0"     purity="0.00000000E+00" nType="0">
                <Node pos="l" depth="4" NCoef="0"     IVar="-1" Cut="     0.000000E+00" cType="1"     res="    -7.362720E-02" rms="0.0e-00"     purity="0.00000000E+00" nType="-99">
                </Node>
                <Node pos="r" depth="4" NCoef="0"     IVar="-1" Cut="     0.000000E+00" cType="1"     res="    -1.254300E-01" rms="0.0e-00"     purity="0.00000000E+00" nType="-99">
                </Node>
            </Node>
        </Node>
    </Node>
</BinaryTree>
<BinaryTree type="DecisionTree" boostWeight="0.0" itree="8">
    <Node pos="c" depth="1" NCoef="0"     IVar="2" Cut="     1.052800E+00" cType="1"     res="     0.000000E+00" rms="0.0"     purity="0.00000000E+00" nType="0">
        <Node pos="l" depth="2" NCoef="0"     IVar="4" Cut="     3.745220E-01" cType="1"     res="     0.000000E+00" rms="0.0"     purity="0.00000000E+00" nType="0">
            <Node pos="l" depth="3" NCoef="0"     IVar="1" Cut="     2.535320E-01" cType="1"     res="     0.000000E+00" rms="0.0"     purity="0.00000000E+00" nType="0">
                <Node pos="l" depth="4" NCoef="0"     IVar="-1" Cut="     0.000000E+00" cType="1"     res="     5.772640E-03" rms="0.0e-00"     purity="0.00000000E+00" nType="-99">
                </Node>
                <Node pos="r" depth="4" NCoef="0"     IVar="-1" Cut="     0.000000E+00" cType="1"     res="     7.271030E-02" rms="0.0e-00"     purity="0.00000000E+00" nType="-99">
                </Node>
            </Node>
            <Node pos="r" depth="3" NCoef="0"     IVar="4" Cut="     8.065770E-01" cType="1"     res="     0.000000E+00" rms="0.0"     purity="0.00000000E+00" nType="0">
                <Node pos="l" depth="4" NCoef="0"     IVar="-1" Cut="     0.000000E+00" cType="1"     res="    -2.051900E-02" rms="0.0e-00"     purity="0.00000000E+00" nType="-99">
                </Node>
                <Node pos="r" depth="4" NCoef="0"     IVar="-1" Cut="     0.000000E+00" cType="1"     res="    -1.081860E-01" rms="0.0e-00"     purity="0.00000000E+00" nType="-99">
                </Node>
            </Node>
        </Node>
        <Node pos="r" depth="2" NCoef="0"     IVar="0" Cut="     7.954580E+01" cType="1"     res="     0.000000E+00" rms="0.0"     purity="0.00000000E+00" nType="0">
            <Node pos="l" depth="3" NCoef="0"     IVar="3" Cut="     2.540520E+00" cType="1"     res="     0.000000E+00" rms="0.0"     purity="0.00000000E+00" nType="0">
                <Node pos="l" depth="4" NCoef="0"     IVar="-1" Cut="     0.000000E+00" cType="1"     res="     2.417750E-02" rms="0.0e-00"     purity="0.00000000E+00" nType="-99">
                </Node>
                <Node pos="r" depth="4" NCoef="0"     IVar="-1" Cut="     0.000000E+00" cType="1"     res="    -4.735590E-02" rms="0.0e-00"     purity="0.00000000E+00" nType="-99">
                </Node>
            </Node>
            <Node pos="r" depth="3" NCoef="0"     IVar="0" Cut="     1.243970E+02" cType="1"     res="     0.000000E+00" rms="0.0"     purity="0.00000000E+00" nType="0">
                <Node pos="l" depth="4" NCoef="0"     IVar="-1" Cut="     0.000000E+00" cType="1"     res="    -7.687350E-02" rms="0.0e-00"     purity="0.00000000E+00" nType="-99">
                </Node>
                <Node pos="r" depth="4" NCoef="0"     IVar="-1" Cut="     0.000000E+00" cType="1"     res="    -1.215200E-01" rms="0.0e-00"     purity="0.00000000E+00" nType="-99">
                </Node>
            </Node>
        </Node>
    </Node>
</BinaryTree>
<BinaryTree type="DecisionTree" boostWeight="0.0" itree="9">
    <Node pos="c" depth="1" NCoef="0"     IVar="4" Cut="     7.036890E-01" cType="1"     res="     0.000000E+00" rms="0.0"     purity="0.00000000E+00" nType="0">
        <Node pos="l" depth="2" NCoef="0"     IVar="2" Cut="     1.812440E+00" cType="1"     res="     0.000000E+00" rms="0.0"     purity="0.00000000E+00" nType="0">
            <Node pos="l" depth="3" NCoef="0"     IVar="0" Cut="     1.082990E+02" cType="1"     res="     0.000000E+00" rms="0.0"     purity="0.00000000E+00" nType="0">
                <Node pos="l" depth="4" NCoef="0"     IVar="-1" Cut="     0.000000E+00" cType="1"     res="     4.203740E-02" rms="0.0e-00"     purity="0.00000000E+00" nType="-99">
                </Node>
                <Node pos="r" depth="4" NCoef="0"     IVar="-1" Cut="     0.000000E+00" cType="1"     res="    -3.280760E-02" rms="0.0e-00"     purity="0.00000000E+00" nType="-99">
                </Node>
            </Node>
            <Node pos="r" depth="3" NCoef="0"     IVar="3" Cut="     3.201720E+00" cType="1"     res="     0.000000E+00" rms="0.0"     purity="0.00000000E+00" nType="0">
                <Node pos="l" depth="4" NCoef="0"     IVar="-1" Cut="     0.000000E+00" cType="1"     res="    -3.865850E-02" rms="0.0e-00"     purity="0.00000000E+00" nType="-99">
                </Node>
                <Node pos="r" depth="4" NCoef="0"     IVar="-1" Cut="     0.000000E+00" cType="1"     res="    -1.090640E-01" rms="0.0e-00"     purity="0.00000000E+00" nType="-99">
                </Node>
            </Node>
        </Node>
        <Node pos="r" depth="2" NCoef="0"     IVar="4" Cut="     9.061490E-01" cType="1"     res="     0.000000E+00" rms="0.0"     purity="0.00000000E+00" nType="0">
            <Node pos="l" depth="3" NCoef="0"     IVar="0" Cut="     1.052150E+02" cType="1"     res="     0.000000E+00" rms="0.0"     purity="0.00000000E+00" nType="0">
                <Node pos="l" depth="4" NCoef="0"     IVar="-1" Cut="     0.000000E+00" cType="1"     res="    -5.599230E-02" rms="0.0e-00"     purity="0.00000000E+00" nType="-99">
                </Node>
                <Node pos="r" depth="4" NCoef="0"     IVar="-1" Cut="     0.000000E+00" cType="1"     res="    -1.176140E-01" rms="0.0e-00"     purity="0.00000000E+00" nType="-99">
                </Node>
            </Node>
            <Node pos="r" depth="3" NCoef="0"     IVar="2" Cut="     1.291540E+00" cType="1"     res="     0.000000E+00" rms="0.0"     purity="0.00000000E+00" nType="0">
                <Node pos="l" depth="4" NCoef="0"     IVar="-1" Cut="     0.000000E+00" cType="1"     res="    -1.155090E-01" rms="0.0e-00"     purity="0.00000000E+00" nType="-99">
                </Node>
                <Node pos="r" depth="4" NCoef="0"     IVar="-1" Cut="     0.000000E+00" cType="1"     res="    -1.386960E-01" rms="0.0e-00"     purity="0.00000000E+00" nType="-99">
                </Node>
            </Node>
        </Node>
    </Node>
</BinaryTree>
<BinaryTree type="DecisionTree" boostWeight="0.0" itree="10">
    <Node pos="c" depth="1" NCoef="0"     IVar="4" Cut="     7.701620E-01" cType="1"     res="     0.000000E+00" rms="0.0"     purity="0.00000000E+00" nType="0">
        <Node pos="l" depth="2" NCoef="0"     IVar="3" Cut="     2.421460E+00" cType="1"     res="     0.000000E+00" rms="0.0"     purity="0.00000000E+00" nType="0">
            <Node pos="l" depth="3" NCoef="0"     IVar="1" Cut="     4.755660E-01" cType="1"     res="     0.000000E+00" rms="0.0"     purity="0.00000000E+00" nType="0">
                <Node pos="l" depth="4" NCoef="0"     IVar="-1" Cut="     0.000000E+00" cType="1"     res="     7.893460E-03" rms="0.0e-00"     purity="0.00000000E+00" nType="-99">
                </Node>
                <Node pos="r" depth="4" NCoef="0"     IVar="-1" Cut="     0.000000E+00" cType="1"     res="     6.218640E-02" rms="0.0e-00"     purity="0.00000000E+00" nType="-99">
                </Node>
            </Node>
            <Node pos="r" depth="3" NCoef="0"     IVar="2" Cut="     1.981810E+00" cType="1"     res="     0.000000E+00" rms="0.0"     purity="0.00000000E+00" nType="0">
                <Node pos="l" depth="4" NCoef="0"     IVar="-1" Cut="     0.000000E+00" cType="1"     res="    -4.572410E-03" rms="0.0e-00"     purity="0.00000000E+00" nType="-99">
                </Node>
                <Node pos="r" depth="4" NCoef="0"     IVar="-1" Cut="     0.000000E+00" cType="1"     res="    -7.237510E-02" rms="0.0e-00"     purity="0.00000000E+00" nType="-99">
                </Node>
            </Node>
        </Node>
        <Node pos="r" depth="2" NCoef="0"     IVar="4" Cut="     9.147980E-01" cType="1"     res="     0.000000E+00" rms="0.0"     purity="0.00000000E+00" nType="0">
            <Node pos="l" depth="3" NCoef="0"     IVar="3" Cut="     2.058220E+00" cType="1"     res="     0.000000E+00" rms="0.0"     purity="0.00000000E+00" nType="0">
                <Node pos="l" depth="4" NCoef="0"     IVar="-1" Cut="     0.000000E+00" cType="1"     res="    -4.245950E-02" rms="0.0e-00"     purity="0.00000000E+00" nType="-99">
                </Node>
                <Node pos="r" depth="4" NCoef="0"     IVar="-1" Cut="     0.000000E+00" cType="1"     res="    -9.340040E-02" rms="0.0e-00"     purity="0.00000000E+00" nType="-99">
                </Node>
            </Node>
            <Node pos="r" depth="3" NCoef="0"     IVar="2" Cut="     1.291540E+00" cType="1"     res="     0.000000E+00" rms="0.0"     purity="0.00000000E+00" nType="0">
                <Node pos="l" depth="4" NCoef="0"     IVar="-1" Cut="     0.000000E+00" cType="1"     res="    -1.138600E-01" rms="0.0e-00"     purity="0.00000000E+00" nType="-99">
                </Node>
                <Node pos="r" depth="4" NCoef="0"     IVar="-1" Cut="     0.000000E+00" cType="1"     res="    -1.327510E-01" rms="0.0e-00"     purity="0.00000000E+00" nType="-99">
                </Node>
            </Node>
        </Node>
    </Node>
</BinaryTree>
<BinaryTree type="DecisionTree" boostWeight="0.0" itree="11">
    <Node pos="c" depth="1" NCoef="0"     IVar="2" Cut="     1.033100E+00" cType="1"     res="     0.000000E+00" rms="0.0"     purity="0.00000000E+00" nType="0">
        <Node pos="l" depth="2" NCoef="0"     IVar="4" Cut="     3.603980E-01" cType="1"     res="     0.000000E+00" rms="0.0"     purity="0.00000000E+00" nType="0">
            <Node pos="l" depth="3" NCoef="0"     IVar="0" Cut="     2.470450E+02" cType="1"     res="     0.000000E+00" rms="0.0"     purity="0.00000000E+00" nType="0">
                <Node pos="l" depth="4" NCoef="0"     IVar="-1" Cut="     0.000000E+00" cType="1"     res="     5.707470E-02" rms="0.0e-00"     purity="0.00000000E+00" nType="-99">
                </Node>
                <Node pos="r" depth="4" NCoef="0"     IVar="-1" Cut="     0.000000E+00" cType="1"     res="    -7.481760E-02" rms="0.0e-00"     purity="0.00000000E+00" nType="-99">
                </Node>
            </Node>
            <Node pos="r" depth="3" NCoef="0"     IVar="4" Cut="     9.148050E-01" cType="1"     res="     0.000000E+00" rms="0.0"     purity="0.00000000E+00" nType="0">
                <Node pos="l" depth="4" NCoef="0"     IVar="-1" Cut="     0.000000E+00" cType="1"     res="    -2.441730E-02" rms="0.0e-00"     purity="0.00000000E+00" nType="-99">
                </Node>
                <Node pos="r" depth="4" NCoef="0"     IVar="-1" Cut="     0.000000E+00" cType="1"     res="    -1.120530E-01" rms="0.0e-00"     purity="0.00000000E+00" nType="-99">
                </Node>
            </Node>
        </Node>
        <Node pos="r" depth="2" NCoef="0"     IVar="0" Cut="     7.866870E+01" cType="1"     res="     0.000000E+00" rms="0.0"     purity="0.00000000E+00" nType="0">
            <Node pos="l" depth="3" NCoef="0"     IVar="4" Cut="     7.863330E-01" cType="1"     res="     0.000000E+00" rms="0.0"     purity="0.00000000E+00" nType="0">
                <Node pos="l" depth="4" NCoef="0"     IVar="-1" Cut="     0.000000E+00" cType="1"     res="    -1.707100E-03" rms="0.0e-00"     purity="0.00000000E+00" nType="-99">
                </Node>
                <Node pos="r" depth="4" NCoef="0"     IVar="-1" Cut="     0.000000E+00" cType="1"     res="    -1.131320E-01" rms="0.0e-00"     purity="0.00000000E+00" nType="-99">
                </Node>
            </Node>
            <Node pos="r" depth="3" NCoef="0"     IVar="0" Cut="     1.243970E+02" cType="1"     res="     0.000000E+00" rms="0.0"     purity="0.00000000E+00" nType="0">
                <Node pos="l" depth="4" NCoef="0"     IVar="-1" Cut="     0.000000E+00" cType="1"     res="    -6.689820E-02" rms="0.0e-00"     purity="0.00000000E+00" nType="-99">
                </Node>
                <Node pos="r" depth="4" NCoef="0"     IVar="-1" Cut="     0.000000E+00" cType="1"     res="    -1.128980E-01" rms="0.0e-00"     purity="0.00000000E+00" nType="-99">
                </Node>
            </Node>
        </Node>
    </Node>
</BinaryTree>
<BinaryTree type="DecisionTree" boostWeight="0.0" itree="12">
    <Node pos="c" depth="1" NCoef="0"     IVar="3" Cut="     2.203040E+00" cType="1"     res="     0.000000E+00" rms="0.0"     purity="0.00000000E+00" nType="0">
        <Node pos="l" depth="2" NCoef="0"     IVar="4" Cut="     5.157450E-01" cType="1"     res="     0.000000E+00" rms="0.0"     purity="0.00000000E+00" nType="0">
            <Node pos="l" depth="3" NCoef="0"     IVar="1" Cut="     4.755570E-01" cType="1"     res="     0.000000E+00" rms="0.0"     purity="0.00000000E+00" nType="0">
                <Node pos="l" depth="4" NCoef="0"     IVar="-1" Cut="     0.000000E+00" cType="1"     res="     1.506590E-02" rms="0.0e-00"     purity="0.00000000E+00" nType="-99">
                </Node>
                <Node pos="r" depth="4" NCoef="0"     IVar="-1" Cut="     0.000000E+00" cType="1"     res="     6.640640E-02" rms="0.0e-00"     purity="0.00000000E+00" nType="-99">
                </Node>
            </Node>
            <Node pos="r" depth="3" NCoef="0"     IVar="4" Cut="     9.148000E-01" cType="1"     res="     0.000000E+00" rms="0.0"     purity="0.00000000E+00" nType="0">
                <Node pos="l" depth="4" NCoef="0"     IVar="-1" Cut="     0.000000E+00" cType="1"     res="    -2.340280E-02" rms="0.0e-00"     purity="0.00000000E+00" nType="-99">
                </Node>
                <Node pos="r" depth="4" NCoef="0"     IVar="-1" Cut="     0.000000E+00" cType="1"     res="    -1.110130E-01" rms="0.0e-00"     purity="0.00000000E+00" nType="-99">
                </Node>
            </Node>
        </Node>
        <Node pos="r" depth="2" NCoef="0"     IVar="3" Cut="     3.308790E+00" cType="1"     res="     0.000000E+00" rms="0.0"     purity="0.00000000E+00" nType="0">
            <Node pos="l" depth="3" NCoef="0"     IVar="4" Cut="     4.559870E-01" cType="1"     res="     0.000000E+00" rms="0.0"     purity="0.00000000E+00" nType="0">
                <Node pos="l" depth="4" NCoef="0"     IVar="-1" Cut="     0.000000E+00" cType="1"     res="    -3.071310E-04" rms="0.0e-00"     purity="0.00000000E+00" nType="-99">
                </Node>
                <Node pos="r" depth="4" NCoef="0"     IVar="-1" Cut="     0.000000E+00" cType="1"     res="    -8.189530E-02" rms="0.0e-00"     purity="0.00000000E+00" nType="-99">
                </Node>
            </Node>
            <Node pos="r" depth="3" NCoef="0"     IVar="3" Cut="     3.823440E+00" cType="1"     res="     0.000000E+00" rms="0.0"     purity="0.00000000E+00" nType="0">
                <Node pos="l" depth="4" NCoef="0"     IVar="-1" Cut="     0.000000E+00" cType="1"     res="    -7.211590E-02" rms="0.0e-00"     purity="0.00000000E+00" nType="-99">
                </Node>
                <Node pos="r" depth="4" NCoef="0"     IVar="-1" Cut="     0.000000E+00" cType="1"     res="    -1.203810E-01" rms="0.0e-00"     purity="0.00000000E+00" nType="-99">
                </Node>
            </Node>
        </Node>
    </Node>
</BinaryTree>
<BinaryTree type="DecisionTree" boostWeight="0.0" itree="13">
    <Node pos="c" depth="1" NCoef="0"     IVar="2" Cut="     1.050420E+00" cType="1"     res="     0.000000E+00" rms="0.0"     purity="0.00000000E+00" nType="0">
        <Node pos="l" depth="2" NCoef="0"     IVar="4" Cut="     3.603980E-01" cType="1"     res="     0.000000E+00" rms="0.0"     purity="0.00000000E+00" nType="0">
            <Node pos="l" depth="3" NCoef="0"     IVar="1" Cut="     1.991680E-01" cType="1"     res="     0.000000E+00" rms="0.0"     purity="0.00000000E+00" nType="0">
                <Node pos="l" depth="4" NCoef="0"     IVar="-1" Cut="     0.000000E+00" cType="1"     res="    -8.463050E-03" rms="0.0e-00"     purity="0.00000000E+00" nType="-99">
                </Node>
                <Node pos="r" depth="4" NCoef="0"     IVar="-1" Cut="     0.000000E+00" cType="1"     res="     5.541080E-02" rms="0.0e-00"     purity="0.00000000E+00" nType="-99">
                </Node>
            </Node>
            <Node pos="r" depth="3" NCoef="0"     IVar="4" Cut="     9.148050E-01" cType="1"     res="     0.000000E+00" rms="0.0"     purity="0.00000000E+00" nType="0">
                <Node pos="l" depth="4" NCoef="0"     IVar="-1" Cut="     0.000000E+00" cType="1"     res="    -2.018890E-02" rms="0.0e-00"     purity="0.00000000E+00" nType="-99">
                </Node>
                <Node pos="r" depth="4" NCoef="0"     IVar="-1" Cut="     0.000000E+00" cType="1"     res="    -1.069550E-01" rms="0.0e-00"     purity="0.00000000E+00" nType="-99">
                </Node>
            </Node>
        </Node>
        <Node pos="r" depth="2" NCoef="0"     IVar="0" Cut="     8.842440E+01" cType="1"     res="     0.000000E+00" rms="0.0"     purity="0.00000000E+00" nType="0">
            <Node pos="l" depth="3" NCoef="0"     IVar="2" Cut="     2.373010E+00" cType="1"     res="     0.000000E+00" rms="0.0"     purity="0.00000000E+00" nType="0">
                <Node pos="l" depth="4" NCoef="0"     IVar="-1" Cut="     0.000000E+00" cType="1"     res="     1.072520E-04" rms="0.0e-00"     purity="0.00000000E+00" nType="-99">
                </Node>
                <Node pos="r" depth="4" NCoef="0"     IVar="-1" Cut="     0.000000E+00" cType="1"     res="    -7.794070E-02" rms="0.0e-00"     purity="0.00000000E+00" nType="-99">
                </Node>
            </Node>
            <Node pos="r" depth="3" NCoef="0"     IVar="0" Cut="     1.814960E+02" cType="1"     res="     0.000000E+00" rms="0.0"     purity="0.00000000E+00" nType="0">
                <Node pos="l" depth="4" NCoef="0"     IVar="-1" Cut="     0.000000E+00" cType="1"     res="    -7.632600E-02" rms="0.0e-00"     purity="0.00000000E+00" nType="-99">
                </Node>
                <Node pos="r" depth="4" NCoef="0"     IVar="-1" Cut="     0.000000E+00" cType="1"     res="    -1.216020E-01" rms="0.0e-00"     purity="0.00000000E+00" nType="-99">
                </Node>
            </Node>
        </Node>
    </Node>
</BinaryTree>
<BinaryTree type="DecisionTree" boostWeight="0.0" itree="14">
    <Node pos="c" depth="1" NCoef="0"     IVar="4" Cut="     7.701620E-01" cType="1"     res="     0.000000E+00" rms="0.0"     purity="0.00000000E+00" nType="0">
        <Node pos="l" depth="2" NCoef="0"     IVar="3" Cut="     3.173020E+00" cType="1"     res="     0.000000E+00" rms="0.0"     purity="0.00000000E+00" nType="0">
            <Node pos="l" depth="3" NCoef="0"     IVar="2" Cut="     8.200800E-01" cType="1"     res="     0.000000E+00" rms="0.0"     purity="0.00000000E+00" nType="0">
                <Node pos="l" depth="4" NCoef="0"     IVar="-1" Cut="     0.000000E+00" cType="1"     res="     5.513550E-02" rms="0.0e-00"     purity="0.00000000E+00" nType="-99">
                </Node>
                <Node pos="r" depth="4" NCoef="0"     IVar="-1" Cut="     0.000000E+00" cType="1"     res="     2.915730E-03" rms="0.0e-00"     purity="0.00000000E+00" nType="-99">
                </Node>
            </Node>
            <Node pos="r" depth="3" NCoef="0"     IVar="3" Cut="     3.581950E+00" cType="1"     res="     0.000000E+00" rms="0.0"     purity="0.00000000E+00" nType="0">
                <Node pos="l" depth="4" NCoef="0"     IVar="-1" Cut="     0.000000E+00" cType="1"     res="    -4.197680E-02" rms="0.0e-00"     purity="0.00000000E+00" nType="-99">
                </Node>
                <Node pos="r" depth="4" NCoef="0"     IVar="-1" Cut="     0.000000E+00" cType="1"     res="    -9.820040E-02" rms="0.0e-00"     purity="0.00000000E+00" nType="-99">
                </Node>
            </Node>
        </Node>
        <Node pos="r" depth="2" NCoef="0"     IVar="4" Cut="     9.147980E-01" cType="1"     res="     0.000000E+00" rms="0.0"     purity="0.00000000E+00" nType="0">
            <Node pos="l" depth="3" NCoef="0"     IVar="0" Cut="     1.123370E+02" cType="1"     res="     0.000000E+00" rms="0.0"     purity="0.00000000E+00" nType="0">
                <Node pos="l" depth="4" NCoef="0"     IVar="-1" Cut="     0.000000E+00" cType="1"     res="    -4.819610E-02" rms="0.0e-00"     purity="0.00000000E+00" nType="-99">
                </Node>
                <Node pos="r" depth="4" NCoef="0"     IVar="-1" Cut="     0.000000E+00" cType="1"     res="    -1.065390E-01" rms="0.0e-00"     purity="0.00000000E+00" nType="-99">
                </Node>
            </Node>
            <Node pos="r" depth="3" NCoef="0"     IVar="4" Cut="     9.774530E-01" cType="1"     res="     0.000000E+00" rms="0.0"     purity="0.00000000E+00" nType="0">
                <Node pos="l" depth="4" NCoef="0"     IVar="-1" Cut="     0.000000E+00" cType="1"     res="    -9.998880E-02" rms="0.0e-00"     purity="0.00000000E+00" nType="-99">
                </Node>
                <Node pos="r" depth="4" NCoef="0"     IVar="-1" Cut="     0.000000E+00" cType="1"     res="    -1.193920E-01" rms="0.0e-00"     purity="0.00000000E+00" nType="-99">
                </Node>
            </Node>
        </Node>
    </Node>
</BinaryTree>
<BinaryTree type="DecisionTree" boostWeight="0.0" itree="15">
    <Node pos="c" depth="1" NCoef="0"     IVar="3" Cut="     2.044030E+00" cType="1"     res="     0.000000E+00" rms="0.0"     purity="0.00000000E+00" nType="0">
        <Node pos="l" depth="2" NCoef="0"     IVar="4" Cut="     7.885220E-01" cType="1"     res="     0.000000E+00" rms="0.0"     purity="0.00000000E+00" nType="0">
            <Node pos="l" depth="3" NCoef="0"     IVar="1" Cut="     9.312440E-02" cType="1"     res="     0.000000E+00" rms="0.0"     purity="0.00000000E+00" nType="0">
                <Node pos="l" depth="4" NCoef="0"     IVar="-1" Cut="     0.000000E+00" cType="1"     res="    -2.226100E-02" rms="0.0e-00"     purity="0.00000000E+00" nType="-99">
                </Node>
                <Node pos="r" depth="4" NCoef="0"     IVar="-1" Cut="     0.000000E+00" cType="1"     res="     5.187380E-02" rms="0.0e-00"     purity="0.00000000E+00" nType="-99">
                </Node>
            </Node>
            <Node pos="r" depth="3" NCoef="0"     IVar="4" Cut="     9.148000E-01" cType="1"     res="     0.000000E+00" rms="0.0"     purity="0.00000000E+00" nType="0">
                <Node pos="l" depth="4" NCoef="0"     IVar="-1" Cut="     0.000000E+00" cType="1"     res="    -3.756260E-02" rms="0.0e-00"     purity="0.00000000E+00" nType="-99">
                </Node>
                <Node pos="r" depth="4" NCoef="0"     IVar="-1" Cut="     0.000000E+00" cType="1"     res="    -1.034650E-01" rms="0.0e-00"     purity="0.00000000E+00" nType="-99">
                </Node>
            </Node>
        </Node>
        <Node pos="r" depth="2" NCoef="0"     IVar="4" Cut="     6.216870E-01" cType="1"     res="     0.000000E+00" rms="0.0"     purity="0.00000000E+00" nType="0">
            <Node pos="l" depth="3" NCoef="0"     IVar="3" Cut="     3.315150E+00" cType="1"     res="     0.000000E+00" rms="0.0"     purity="0.00000000E+00" nType="0">
                <Node pos="l" depth="4" NCoef="0"     IVar="-1" Cut="     0.000000E+00" cType="1"     res="    -4.461320E-04" rms="0.0e-00"     purity="0.00000000E+00" nType="-99">
                </Node>
                <Node pos="r" depth="4" NCoef="0"     IVar="-1" Cut="     0.000000E+00" cType="1"     res="    -7.225620E-02" rms="0.0e-00"     purity="0.00000000E+00" nType="-99">
                </Node>
            </Node>
            <Node pos="r" depth="3" NCoef="0"     IVar="4" Cut="     9.038930E-01" cType="1"     res="     0.000000E+00" rms="0.0"     purity="0.00000000E+00" nType="0">
                <Node pos="l" depth="4" NCoef="0"     IVar="-1" Cut="     0.000000E+00" cType="1"     res="    -6.141630E-02" rms="0.0e-00"     purity="0.00000000E+00" nType="-99">
                </Node>
                <Node pos="r" depth="4" NCoef="0"     IVar="-1" Cut="     0.000000E+00" cType="1"     res="    -1.114370E-01" rms="0.0e-00"     purity="0.00000000E+00" nType="-99">
                </Node>
            </Node>
        </Node>
    </Node>
</BinaryTree>
<BinaryTree type="DecisionTree" boostWeight="0.0" itree="16">
    <Node pos="c" depth="1" NCoef="0"     IVar="2" Cut="     1.812440E+00" cType="1"     res="     0.000000E+00" rms="0.0"     purity="0.00000000E+00" nType="0">
        <Node pos="l" depth="2" NCoef="0"     IVar="4" Cut="     4.564060E-01" cType="1"     res="     0.000000E+00" rms="0.0"     purity="0.00000000E+00" nType="0">
            <Node pos="l" depth="3" NCoef="0"     IVar="0" Cut="     1.690270E+02" cType="1"     res="     0.000000E+00" rms="0.0"     purity="0.00000000E+00" nType="0">
                <Node pos="l" depth="4" NCoef="0"     IVar="-1" Cut="     0.000000E+00" cType="1"     res="     2.835150E-02" rms="0.0e-00"     purity="0.00000000E+00" nType="-99">
                </Node>
                <Node pos="r" depth="4" NCoef="0"     IVar="-1" Cut="     0.000000E+00" cType="1"     res="    -6.170770E-02" rms="0.0e-00"     purity="0.00000000E+00" nType="-99">
                </Node>
            </Node>
            <Node pos="r" depth="3" NCoef="0"     IVar="4" Cut="     8.899300E-01" cType="1"     res="     0.000000E+00" rms="0.0"     purity="0.00000000E+00" nType="0">
                <Node pos="l" depth="4" NCoef="0"     IVar="-1" Cut="     0.000000E+00" cType="1"     res="    -2.996580E-02" rms="0.0e-00"     purity="0.00000000E+00" nType="-99">
                </Node>
                <Node pos="r" depth="4" NCoef="0"     IVar="-1" Cut="     0.000000E+00" cType="1"     res="    -9.984800E-02" rms="0.0e-00"     purity="0.00000000E+00" nType="-99">
                </Node>
            </Node>
        </Node>
        <Node pos="r" depth="2" NCoef="0"     IVar="0" Cut="     5.069380E+01" cType="1"     res="     0.000000E+00" rms="0.0"     purity="0.00000000E+00" nType="0">
            <Node pos="l" depth="3" NCoef="0"     IVar="3" Cut="     3.295800E+00" cType="1"     res="     0.000000E+00" rms="0.0"     purity="0.00000000E+00" nType="0">
                <Node pos="l" depth="4" NCoef="0"     IVar="-1" Cut="     0.000000E+00" cType="1"     res="    -1.116060E-02" rms="0.0e-00"     purity="0.00000000E+00" nType="-99">
                </Node>
                <Node pos="r" depth="4" NCoef="0"     IVar="-1" Cut="     0.000000E+00" cType="1"     res="    -8.401600E-02" rms="0.0e-00"     purity="0.00000000E+00" nType="-99">
                </Node>
            </Node>
            <Node pos="r" depth="3" NCoef="0"     IVar="0" Cut="     1.237820E+02" cType="1"     res="     0.000000E+00" rms="0.0"     purity="0.00000000E+00" nType="0">
                <Node pos="l" depth="4" NCoef="0"     IVar="-1" Cut="     0.000000E+00" cType="1"     res="    -7.098310E-02" rms="0.0e-00"     purity="0.00000000E+00" nType="-99">
                </Node>
                <Node pos="r" depth="4" NCoef="0"     IVar="-1" Cut="     0.000000E+00" cType="1"     res="    -1.111970E-01" rms="0.0e-00"     purity="0.00000000E+00" nType="-99">
                </Node>
            </Node>
        </Node>
    </Node>
</BinaryTree>
<BinaryTree type="DecisionTree" boostWeight="0.0" itree="17">
    <Node pos="c" depth="1" NCoef="0"     IVar="3" Cut="     2.536790E+00" cType="1"     res="     0.000000E+00" rms="0.0"     purity="0.00000000E+00" nType="0">
        <Node pos="l" depth="2" NCoef="0"     IVar="4" Cut="     8.065770E-01" cType="1"     res="     0.000000E+00" rms="0.0"     purity="0.00000000E+00" nType="0">
            <Node pos="l" depth="3" NCoef="0"     IVar="0" Cut="     1.245990E+02" cType="1"     res="     0.000000E+00" rms="0.0"     purity="0.00000000E+00" nType="0">
                <Node pos="l" depth="4" NCoef="0"     IVar="-1" Cut="     0.000000E+00" cType="1"     res="     3.508060E-02" rms="0.0e-00"     purity="0.00000000E+00" nType="-99">
                </Node>
                <Node pos="r" depth="4" NCoef="0"     IVar="-1" Cut="     0.000000E+00" cType="1"     res="    -3.567230E-02" rms="0.0e-00"     purity="0.00000000E+00" nType="-99">
                </Node>
            </Node>
            <Node pos="r" depth="3" NCoef="0"     IVar="4" Cut="     9.432190E-01" cType="1"     res="     0.000000E+00" rms="0.0"     purity="0.00000000E+00" nType="0">
                <Node pos="l" depth="4" NCoef="0"     IVar="-1" Cut="     0.000000E+00" cType="1"     res="    -4.689320E-02" rms="0.0e-00"     purity="0.00000000E+00" nType="-99">
                </Node>
                <Node pos="r" depth="4" NCoef="0"     IVar="-1" Cut="     0.000000E+00" cType="1"     res="    -1.050850E-01" rms="0.0e-00"     purity="0.00000000E+00" nType="-99">
                </Node>
            </Node>
        </Node>
        <Node pos="r" depth="2" NCoef="0"     IVar="2" Cut="     8.036120E-01" cType="1"     res="     0.000000E+00" rms="0.0"     purity="0.00000000E+00" nType="0">
            <Node pos="l" depth="3" NCoef="0"     IVar="4" Cut="     2.935660E-01" cType="1"     res="     0.000000E+00" rms="0.0"     purity="0.00000000E+00" nType="0">
                <Node pos="l" depth="4" NCoef="0"     IVar="-1" Cut="     0.000000E+00" cType="1"     res="     3.432900E-02" rms="0.0e-00"     purity="0.00000000E+00" nType="-99">
                </Node>
                <Node pos="r" depth="4" NCoef="0"     IVar="-1" Cut="     0.000000E+00" cType="1"     res="    -4.327530E-02" rms="0.0e-00"     purity="0.00000000E+00" nType="-99">
                </Node>
            </Node>
            <Node pos="r" depth="3" NCoef="0"     IVar="0" Cut="     6.758920E+01" cType="1"     res="     0.000000E+00" rms="0.0"     purity="0.00000000E+00" nType="0">
                <Node pos="l" depth="4" NCoef="0"     IVar="-1" Cut="     0.000000E+00" cType="1"     res="    -1.944190E-02" rms="0.0e-00"     purity="0.00000000E+00" nType="-99">
                </Node>
                <Node pos="r" depth="4" NCoef="0"     IVar="-1" Cut="     0.000000E+00" cType="1"     res="    -7.802240E-02" rms="0.0e-00"     purity="0.00000000E+00" nType="-99">
                </Node>
            </Node>
        </Node>
    </Node>
</BinaryTree>
<BinaryTree type="DecisionTree" boostWeight="0.0" itree="18">
    <Node pos="c" depth="1" NCoef="0"     IVar="2" Cut="     8.752450E-01" cType="1"     res="     0.000000E+00" rms="0.0"     purity="0.00000000E+00" nType="0">
        <Node pos="l" depth="2" NCoef="0"     IVar="4" Cut="     2.952720E-01" cType="1"     res="     0.000000E+00" rms="0.0"     purity="0.00000000E+00" nType="0">
            <Node pos="l" depth="3" NCoef="0"     IVar="1" Cut="     2.739390E-01" cType="1"     res="     0.000000E+00" rms="0.0"     purity="0.00000000E+00" nType="0">
                <Node pos="l" depth="4" NCoef="0"     IVar="-1" Cut="     0.000000E+00" cType="1"     res="     1.870050E-03" rms="0.0e-00"     purity="0.00000000E+00" nType="-99">
                </Node>
                <Node pos="r" depth="4" NCoef="0"     IVar="-1" Cut="     0.000000E+00" cType="1"     res="     5.388460E-02" rms="0.0e-00"     purity="0.00000000E+00" nType="-99">
                </Node>
            </Node>
            <Node pos="r" depth="3" NCoef="0"     IVar="0" Cut="     9.099050E+01" cType="1"     res="     0.000000E+00" rms="0.0"     purity="0.00000000E+00" nType="0">
                <Node pos="l" depth="4" NCoef="0"     IVar="-1" Cut="     0.000000E+00" cType="1"     res="     8.634990E-03" rms="0.0e-00"     purity="0.00000000E+00" nType="-99">
                </Node>
                <Node pos="r" depth="4" NCoef="0"     IVar="-1" Cut="     0.000000E+00" cType="1"     res="    -6.376600E-02" rms="0.0e-00"     purity="0.00000000E+00" nType="-99">
                </Node>
            </Node>
        </Node>
        <Node pos="r" depth="2" NCoef="0"     IVar="0" Cut="     8.922490E+01" cType="1"     res="     0.000000E+00" rms="0.0"     purity="0.00000000E+00" nType="0">
            <Node pos="l" depth="3" NCoef="0"     IVar="1" Cut="     3.658250E-01" cType="1"     res="     0.000000E+00" rms="0.0"     purity="0.00000000E+00" nType="0">
                <Node pos="l" depth="4" NCoef="0"     IVar="-1" Cut="     0.000000E+00" cType="1"     res="    -3.879450E-02" rms="0.0e-00"     purity="0.00000000E+00" nType="-99">
                </Node>
                <Node pos="r" depth="4" NCoef="0"     IVar="-1" Cut="     0.000000E+00" cType="1"     res="     1.235700E-02" rms="0.0e-00"     purity="0.00000000E+00" nType="-99">
                </Node>
            </Node>
            <Node pos="r" depth="3" NCoef="0"     IVar="0" Cut="     1.882160E+02" cType="1"     res="     0.000000E+00" rms="0.0"     purity="0.00000000E+00" nType="0">
                <Node pos="l" depth="4" NCoef="0"     IVar="-1" Cut="     0.000000E+00" cType="1"     res="    -6.137510E-02" rms="0.0e-00"     purity="0.00000000E+00" nType="-99">
                </Node>
                <Node pos="r" depth="4" NCoef="0"     IVar="-1" Cut="     0.000000E+00" cType="1"     res="    -1.152340E-01" rms="0.0e-00"     purity="0.00000000E+00" nType="-99">
                </Node>
            </Node>
        </Node>
    </Node>
</BinaryTree>
<BinaryTree type="DecisionTree" boostWeight="0.0" itree="19">
    <Node pos="c" depth="1" NCoef="0"     IVar="4" Cut="     8.428360E-01" cType="1"     res="     0.000000E+00" rms="0.0"     purity="0.00000000E+00" nType="0">
        <Node pos="l" depth="2" NCoef="0"     IVar="3" Cut="     3.173020E+00" cType="1"     res="     0.000000E+00" rms="0.0"     purity="0.00000000E+00" nType="0">
            <Node pos="l" depth="3" NCoef="0"     IVar="1" Cut="     2.067120E-01" cType="1"     res="     0.000000E+00" rms="0.0"     purity="0.00000000E+00" nType="0">
                <Node pos="l" depth="4" NCoef="0"     IVar="-1" Cut="     0.000000E+00" cType="1"     res="    -3.047860E-02" rms="0.0e-00"     purity="0.00000000E+00" nType="-99">
                </Node>
                <Node pos="r" depth="4" NCoef="0"     IVar="-1" Cut="     0.000000E+00" cType="1"     res="     2.293490E-02" rms="0.0e-00"     purity="0.00000000E+00" nType="-99">
                </Node>
            </Node>
            <Node pos="r" depth="3" NCoef="0"     IVar="3" Cut="     3.698980E+00" cType="1"     res="     0.000000E+00" rms="0.0"     purity="0.00000000E+00" nType="0">
                <Node pos="l" depth="4" NCoef="0"     IVar="-1" Cut="     0.000000E+00" cType="1"     res="    -3.482550E-02" rms="0.0e-00"     purity="0.00000000E+00" nType="-99">
                </Node>
                <Node pos="r" depth="4" NCoef="0"     IVar="-1" Cut="     0.000000E+00" cType="1"     res="    -9.087910E-02" rms="0.0e-00"     purity="0.00000000E+00" nType="-99">
                </Node>
            </Node>
        </Node>
        <Node pos="r" depth="2" NCoef="0"     IVar="4" Cut="     9.295760E-01" cType="1"     res="     0.000000E+00" rms="0.0"     purity="0.00000000E+00" nType="0">
            <Node pos="l" depth="3" NCoef="0"     IVar="4" Cut="     9.295710E-01" cType="1"     res="     0.000000E+00" rms="0.0"     purity="0.00000000E+00" nType="0">
                <Node pos="l" depth="4" NCoef="0"     IVar="-1" Cut="     0.000000E+00" cType="1"     res="    -6.355690E-02" rms="0.0e-00"     purity="0.00000000E+00" nType="-99">
                </Node>
                <Node pos="r" depth="4" NCoef="0"     IVar="-1" Cut="     0.000000E+00" cType="1"     res="     6.492490E-01" rms="0.0e-00"     purity="0.00000000E+00" nType="-99">
                </Node>
            </Node>
            <Node pos="r" depth="3" NCoef="0"     IVar="4" Cut="     9.774530E-01" cType="1"     res="     0.000000E+00" rms="0.0"     purity="0.00000000E+00" nType="0">
                <Node pos="l" depth="4" NCoef="0"     IVar="-1" Cut="     0.000000E+00" cType="1"     res="    -8.866360E-02" rms="0.0e-00"     purity="0.00000000E+00" nType="-99">
                </Node>
                <Node pos="r" depth="4" NCoef="0"     IVar="-1" Cut="     0.000000E+00" cType="1"     res="    -1.115300E-01" rms="0.0e-00"     purity="0.00000000E+00" nType="-99">
                </Node>
            </Node>
        </Node>
    </Node>
</BinaryTree>
<BinaryTree type="DecisionTree" boostWeight="0.0" itree="20">
    <Node pos="c" depth="1" NCoef="0"     IVar="3" Cut="     1.799620E+00" cType="1"     res="     0.000000E+00" rms="0.0"     purity="0.00000000E+00" nType="0">
        <Node pos="l" depth="2" NCoef="0"     IVar="4" Cut="     8.582900E-01" cType="1"     res="     0.000000E+00" rms="0.0"     purity="0.00000000E+00" nType="0">
            <Node pos="l" depth="3" NCoef="0"     IVar="1" Cut="     7.169430E-02" cType="1"     res="     0.000000E+00" rms="0.0"     purity="0.00000000E+00" nType="0">
                <Node pos="l" depth="4" NCoef="0"     IVar="-1" Cut="     0.000000E+00" cType="1"     res="    -2.267070E-02" rms="0.0e-00"     purity="0.00000000E+00" nType="-99">
                </Node>
                <Node pos="r" depth="4" NCoef="0"     IVar="-1" Cut="     0.000000E+00" cType="1"     res="     4.904230E-02" rms="0.0e-00"     purity="0.00000000E+00" nType="-99">
                </Node>
            </Node>
            <Node pos="r" depth="3" NCoef="0"     IVar="4" Cut="     9.296330E-01" cType="1"     res="     0.000000E+00" rms="0.0"     purity="0.00000000E+00" nType="0">
                <Node pos="l" depth="4" NCoef="0"     IVar="-1" Cut="     0.000000E+00" cType="1"     res="    -4.651580E-02" rms="0.0e-00"     purity="0.00000000E+00" nType="-99">
                </Node>
                <Node pos="r" depth="4" NCoef="0"     IVar="-1" Cut="     0.000000E+00" cType="1"     res="    -1.025510E-01" rms="0.0e-00"     purity="0.00000000E+00" nType="-99">
                </Node>
            </Node>
        </Node>
        <Node pos="r" depth="2" NCoef="0"     IVar="0" Cut="     1.007390E+02" cType="1"     res="     0.000000E+00" rms="0.0"     purity="0.00000000E+00" nType="0">
            <Node pos="l" depth="3" NCoef="0"     IVar="1" Cut="     3.658250E-01" cType="1"     res="     0.000000E+00" rms="0.0"     purity="0.00000000E+00" nType="0">
                <Node pos="l" depth="4" NCoef="0"     IVar="-1" Cut="     0.000000E+00" cType="1"     res="    -3.749860E-02" rms="0.0e-00"     purity="0.00000000E+00" nType="-99">
                </Node>
                <Node pos="r" depth="4" NCoef="0"     IVar="-1" Cut="     0.000000E+00" cType="1"     res="     1.112550E-02" rms="0.0e-00"     purity="0.00000000E+00" nType="-99">
                </Node>
            </Node>
            <Node pos="r" depth="3" NCoef="0"     IVar="2" Cut="     6.747950E-01" cType="1"     res="     0.000000E+00" rms="0.0"     purity="0.00000000E+00" nType="0">
                <Node pos="l" depth="4" NCoef="0"     IVar="-1" Cut="     0.000000E+00" cType="1"     res="     1.622620E-02" rms="0.0e-00"     purity="0.00000000E+00" nType="-99">
                </Node>
                <Node pos="r" depth="4" NCoef="0"     IVar="-1" Cut="     0.000000E+00" cType="1"     res="    -7.906830E-02" rms="0.0e-00"     purity="0.00000000E+00" nType="-99">
                </Node>
            </Node>
        </Node>
    </Node>
</BinaryTree>
<BinaryTree type="DecisionTree" boostWeight="0.0" itree="21">
    <Node pos="c" depth="1" NCoef="0"     IVar="2" Cut="     2.050530E+00" cType="1"     res="     0.000000E+00" rms="0.0"     purity="0.00000000E+00" nType="0">
        <Node pos="l" depth="2" NCoef="0"     IVar="4" Cut="     4.564060E-01" cType="1"     res="     0.000000E+00" rms="0.0"     purity="0.00000000E+00" nType="0">
            <Node pos="l" depth="3" NCoef="0"     IVar="0" Cut="     1.944680E+02" cType="1"     res="     0.000000E+00" rms="0.0"     purity="0.00000000E+00" nType="0">
                <Node pos="l" depth="4" NCoef="0"     IVar="-1" Cut="     0.000000E+00" cType="1"     res="     2.010480E-02" rms="0.0e-00"     purity="0.00000000E+00" nType="-99">
                </Node>
                <Node pos="r" depth="4" NCoef="0"     IVar="-1" Cut="     0.000000E+00" cType="1"     res="    -6.550830E-02" rms="0.0e-00"     purity="0.00000000E+00" nType="-99">
                </Node>
            </Node>
            <Node pos="r" depth="3" NCoef="0"     IVar="4" Cut="     9.147980E-01" cType="1"     res="     0.000000E+00" rms="0.0"     purity="0.00000000E+00" nType="0">
                <Node pos="l" depth="4" NCoef="0"     IVar="-1" Cut="     0.000000E+00" cType="1"     res="    -2.664950E-02" rms="0.0e-00"     purity="0.00000000E+00" nType="-99">
                </Node>
                <Node pos="r" depth="4" NCoef="0"     IVar="-1" Cut="     0.000000E+00" cType="1"     res="    -9.786730E-02" rms="0.0e-00"     purity="0.00000000E+00" nType="-99">
                </Node>
            </Node>
        </Node>
        <Node pos="r" depth="2" NCoef="0"     IVar="0" Cut="     5.060330E+01" cType="1"     res="     0.000000E+00" rms="0.0"     purity="0.00000000E+00" nType="0">
            <Node pos="l" depth="3" NCoef="0"     IVar="2" Cut="     2.594870E+00" cType="1"     res="     0.000000E+00" rms="0.0"     purity="0.00000000E+00" nType="0">
                <Node pos="l" depth="4" NCoef="0"     IVar="-1" Cut="     0.000000E+00" cType="1"     res="    -1.338720E-02" rms="0.0e-00"     purity="0.00000000E+00" nType="-99">
                </Node>
                <Node pos="r" depth="4" NCoef="0"     IVar="-1" Cut="     0.000000E+00" cType="1"     res="    -6.775970E-02" rms="0.0e-00"     purity="0.00000000E+00" nType="-99">
                </Node>
            </Node>
            <Node pos="r" depth="3" NCoef="0"     IVar="0" Cut="     7.927280E+01" cType="1"     res="     0.000000E+00" rms="0.0"     purity="0.00000000E+00" nType="0">
                <Node pos="l" depth="4" NCoef="0"     IVar="-1" Cut="     0.000000E+00" cType="1"     res="    -6.541570E-02" rms="0.0e-00"     purity="0.00000000E+00" nType="-99">
                </Node>
                <Node pos="r" depth="4" NCoef="0"     IVar="-1" Cut="     0.000000E+00" cType="1"     res="    -9.810500E-02" rms="0.0e-00"     purity="0.00000000E+00" nType="-99">
                </Node>
            </Node>
        </Node>
    </Node>
</BinaryTree>
<BinaryTree type="DecisionTree" boostWeight="0.0" itree="22">
    <Node pos="c" depth="1" NCoef="0"     IVar="2" Cut="     7.417610E-01" cType="1"     res="     0.000000E+00" rms="0.0"     purity="0.00000000E+00" nType="0">
        <Node pos="l" depth="2" NCoef="0"     IVar="4" Cut="     1.635130E-01" cType="1"     res="     0.000000E+00" rms="0.0"     purity="0.00000000E+00" nType="0">
            <Node pos="l" depth="3" NCoef="0"     IVar="1" Cut="     6.604320E-01" cType="1"     res="     0.000000E+00" rms="0.0"     purity="0.00000000E+00" nType="0">
                <Node pos="l" depth="4" NCoef="0"     IVar="-1" Cut="     0.000000E+00" cType="1"     res="     2.478140E-02" rms="0.0e-00"     purity="0.00000000E+00" nType="-99">
                </Node>
                <Node pos="r" depth="4" NCoef="0"     IVar="-1" Cut="     0.000000E+00" cType="1"     res="     6.282710E-02" rms="0.0e-00"     purity="0.00000000E+00" nType="-99">
                </Node>
            </Node>
            <Node pos="r" depth="3" NCoef="0"     IVar="4" Cut="     8.548030E-01" cType="1"     res="     0.000000E+00" rms="0.0"     purity="0.00000000E+00" nType="0">
                <Node pos="l" depth="4" NCoef="0"     IVar="-1" Cut="     0.000000E+00" cType="1"     res="     7.457450E-03" rms="0.0e-00"     purity="0.00000000E+00" nType="-99">
                </Node>
                <Node pos="r" depth="4" NCoef="0"     IVar="-1" Cut="     0.000000E+00" cType="1"     res="    -7.647880E-02" rms="0.0e-00"     purity="0.00000000E+00" nType="-99">
                </Node>
            </Node>
        </Node>
        <Node pos="r" depth="2" NCoef="0"     IVar="0" Cut="     8.972780E+01" cType="1"     res="     0.000000E+00" rms="0.0"     purity="0.00000000E+00" nType="0">
            <Node pos="l" depth="3" NCoef="0"     IVar="2" Cut="     2.413630E+00" cType="1"     res="     0.000000E+00" rms="0.0"     purity="0.00000000E+00" nType="0">
                <Node pos="l" depth="4" NCoef="0"     IVar="-1" Cut="     0.000000E+00" cType="1"     res="     6.097560E-03" rms="0.0e-00"     purity="0.00000000E+00" nType="-99">
                </Node>
                <Node pos="r" depth="4" NCoef="0"     IVar="-1" Cut="     0.000000E+00" cType="1"     res="    -6.141960E-02" rms="0.0e-00"     purity="0.00000000E+00" nType="-99">
                </Node>
            </Node>
            <Node pos="r" depth="3" NCoef="0"     IVar="0" Cut="     1.944170E+02" cType="1"     res="     0.000000E+00" rms="0.0"     purity="0.00000000E+00" nType="0">
                <Node pos="l" depth="4" NCoef="0"     IVar="-1" Cut="     0.000000E+00" cType="1"     res="    -4.840050E-02" rms="0.0e-00"     purity="0.00000000E+00" nType="-99">
                </Node>
                <Node pos="r" depth="4" NCoef="0"     IVar="-1" Cut="     0.000000E+00" cType="1"     res="    -1.057140E-01" rms="0.0e-00"     purity="0.00000000E+00" nType="-99">
                </Node>
            </Node>
        </Node>
    </Node>
</BinaryTree>
<BinaryTree type="DecisionTree" boostWeight="0.0" itree="23">
    <Node pos="c" depth="1" NCoef="0"     IVar="4" Cut="     8.428360E-01" cType="1"     res="     0.000000E+00" rms="0.0"     purity="0.00000000E+00" nType="0">
        <Node pos="l" depth="2" NCoef="0"     IVar="3" Cut="     3.308790E+00" cType="1"     res="     0.000000E+00" rms="0.0"     purity="0.00000000E+00" nType="0">
            <Node pos="l" depth="3" NCoef="0"     IVar="1" Cut="     1.675640E-01" cType="1"     res="     0.000000E+00" rms="0.0"     purity="0.00000000E+00" nType="0">
                <Node pos="l" depth="4" NCoef="0"     IVar="-1" Cut="     0.000000E+00" cType="1"     res="    -2.978080E-02" rms="0.0e-00"     purity="0.00000000E+00" nType="-99">
                </Node>
                <Node pos="r" depth="4" NCoef="0"     IVar="-1" Cut="     0.000000E+00" cType="1"     res="     1.716810E-02" rms="0.0e-00"     purity="0.00000000E+00" nType="-99">
                </Node>
            </Node>
            <Node pos="r" depth="3" NCoef="0"     IVar="3" Cut="     3.857910E+00" cType="1"     res="     0.000000E+00" rms="0.0"     purity="0.00000000E+00" nType="0">
                <Node pos="l" depth="4" NCoef="0"     IVar="-1" Cut="     0.000000E+00" cType="1"     res="    -4.173520E-02" rms="0.0e-00"     purity="0.00000000E+00" nType="-99">
                </Node>
                <Node pos="r" depth="4" NCoef="0"     IVar="-1" Cut="     0.000000E+00" cType="1"     res="    -9.389780E-02" rms="0.0e-00"     purity="0.00000000E+00" nType="-99">
                </Node>
            </Node>
        </Node>
        <Node pos="r" depth="2" NCoef="0"     IVar="4" Cut="     9.660590E-01" cType="1"     res="     0.000000E+00" rms="0.0"     purity="0.00000000E+00" nType="0">
            <Node pos="l" depth="3" NCoef="0"     IVar="4" Cut="     9.660510E-01" cType="1"     res="     0.000000E+00" rms="0.0"     purity="0.00000000E+00" nType="0">
                <Node pos="l" depth="4" NCoef="0"     IVar="-1" Cut="     0.000000E+00" cType="1"     res="    -6.268040E-02" rms="0.0e-00"     purity="0.00000000E+00" nType="-99">
                </Node>
                <Node pos="r" depth="4" NCoef="0"     IVar="-1" Cut="     0.000000E+00" cType="1"     res="     7.362810E-01" rms="0.0e-00"     purity="0.00000000E+00" nType="-99">
                </Node>
            </Node>
            <Node pos="r" depth="3" NCoef="0"     IVar="2" Cut="     7.820990E-01" cType="1"     res="     0.000000E+00" rms="0.0"     purity="0.00000000E+00" nType="0">
                <Node pos="l" depth="4" NCoef="0"     IVar="-1" Cut="     0.000000E+00" cType="1"     res="    -7.944110E-02" rms="0.0e-00"     purity="0.00000000E+00" nType="-99">
                </Node>
                <Node pos="r" depth="4" NCoef="0"     IVar="-1" Cut="     0.000000E+00" cType="1"     res="    -1.086560E-01" rms="0.0e-00"     purity="0.00000000E+00" nType="-99">
                </Node>
            </Node>
        </Node>
    </Node>
</BinaryTree>
<BinaryTree type="DecisionTree" boostWeight="0.0" itree="24">
    <Node pos="c" depth="1" NCoef="0"     IVar="3" Cut="     1.726480E+00" cType="1"     res="     0.000000E+00" rms="0.0"     purity="0.00000000E+00" nType="0">
        <Node pos="l" depth="2" NCoef="0"     IVar="4" Cut="     2.668290E-01" cType="1"     res="     0.000000E+00" rms="0.0"     purity="0.00000000E+00" nType="0">
            <Node pos="l" depth="3" NCoef="0"     IVar="1" Cut="     5.257740E-01" cType="1"     res="     0.000000E+00" rms="0.0"     purity="0.00000000E+00" nType="0">
                <Node pos="l" depth="4" NCoef="0"     IVar="-1" Cut="     0.000000E+00" cType="1"     res="     2.222070E-02" rms="0.0e-00"     purity="0.00000000E+00" nType="-99">
                </Node>
                <Node pos="r" depth="4" NCoef="0"     IVar="-1" Cut="     0.000000E+00" cType="1"     res="     5.942760E-02" rms="0.0e-00"     purity="0.00000000E+00" nType="-99">
                </Node>
            </Node>
            <Node pos="r" depth="3" NCoef="0"     IVar="4" Cut="     9.296330E-01" cType="1"     res="     0.000000E+00" rms="0.0"     purity="0.00000000E+00" nType="0">
                <Node pos="l" depth="4" NCoef="0"     IVar="-1" Cut="     0.000000E+00" cType="1"     res="     4.049990E-03" rms="0.0e-00"     purity="0.00000000E+00" nType="-99">
                </Node>
                <Node pos="r" depth="4" NCoef="0"     IVar="-1" Cut="     0.000000E+00" cType="1"     res="    -9.556560E-02" rms="0.0e-00"     purity="0.00000000E+00" nType="-99">
                </Node>
            </Node>
        </Node>
        <Node pos="r" depth="2" NCoef="0"     IVar="0" Cut="     1.008560E+02" cType="1"     res="     0.000000E+00" rms="0.0"     purity="0.00000000E+00" nType="0">
            <Node pos="l" depth="3" NCoef="0"     IVar="1" Cut="     6.133280E-01" cType="1"     res="     0.000000E+00" rms="0.0"     purity="0.00000000E+00" nType="0">
                <Node pos="l" depth="4" NCoef="0"     IVar="-1" Cut="     0.000000E+00" cType="1"     res="    -2.374330E-02" rms="0.0e-00"     purity="0.00000000E+00" nType="-99">
                </Node>
                <Node pos="r" depth="4" NCoef="0"     IVar="-1" Cut="     0.000000E+00" cType="1"     res="     1.452310E-02" rms="0.0e-00"     purity="0.00000000E+00" nType="-99">
                </Node>
            </Node>
            <Node pos="r" depth="3" NCoef="0"     IVar="2" Cut="     6.747950E-01" cType="1"     res="     0.000000E+00" rms="0.0"     purity="0.00000000E+00" nType="0">
                <Node pos="l" depth="4" NCoef="0"     IVar="-1" Cut="     0.000000E+00" cType="1"     res="     1.258600E-02" rms="0.0e-00"     purity="0.00000000E+00" nType="-99">
                </Node>
                <Node pos="r" depth="4" NCoef="0"     IVar="-1" Cut="     0.000000E+00" cType="1"     res="    -6.829950E-02" rms="0.0e-00"     purity="0.00000000E+00" nType="-99">
                </Node>
            </Node>
        </Node>
    </Node>
</BinaryTree>
<BinaryTree type="DecisionTree" boostWeight="0.0" itree="25">
    <Node pos="c" depth="1" NCoef="0"     IVar="2" Cut="     1.299700E+00" cType="1"     res="     0.000000E+00" rms="0.0"     purity="0.00000000E+00" nType="0">
        <Node pos="l" depth="2" NCoef="0"     IVar="4" Cut="     2.905730E-01" cType="1"     res="     0.000000E+00" rms="0.0"     purity="0.00000000E+00" nType="0">
            <Node pos="l" depth="3" NCoef="0"     IVar="1" Cut="     6.566980E-01" cType="1"     res="     0.000000E+00" rms="0.0"     purity="0.00000000E+00" nType="0">
                <Node pos="l" depth="4" NCoef="0"     IVar="-1" Cut="     0.000000E+00" cType="1"     res="     1.548820E-03" rms="0.0e-00"     purity="0.00000000E+00" nType="-99">
                </Node>
                <Node pos="r" depth="4" NCoef="0"     IVar="-1" Cut="     0.000000E+00" cType="1"     res="     3.690410E-02" rms="0.0e-00"     purity="0.00000000E+00" nType="-99">
                </Node>
            </Node>
            <Node pos="r" depth="3" NCoef="0"     IVar="0" Cut="     7.173990E+01" cType="1"     res="     0.000000E+00" rms="0.0"     purity="0.00000000E+00" nType="0">
                <Node pos="l" depth="4" NCoef="0"     IVar="-1" Cut="     0.000000E+00" cType="1"     res="     5.515510E-03" rms="0.0e-00"     purity="0.00000000E+00" nType="-99">
                </Node>
                <Node pos="r" depth="4" NCoef="0"     IVar="-1" Cut="     0.000000E+00" cType="1"     res="    -5.351060E-02" rms="0.0e-00"     purity="0.00000000E+00" nType="-99">
                </Node>
            </Node>
        </Node>
        <Node pos="r" depth="2" NCoef="0"     IVar="0" Cut="     4.828980E+01" cType="1"     res="     0.000000E+00" rms="0.0"     purity="0.00000000E+00" nType="0">
            <Node pos="l" depth="3" NCoef="0"     IVar="3" Cut="     3.373370E+00" cType="1"     res="     0.000000E+00" rms="0.0"     purity="0.00000000E+00" nType="0">
                <Node pos="l" depth="4" NCoef="0"     IVar="-1" Cut="     0.000000E+00" cType="1"     res="     6.251970E-03" rms="0.0e-00"     purity="0.00000000E+00" nType="-99">
                </Node>
                <Node pos="r" depth="4" NCoef="0"     IVar="-1" Cut="     0.000000E+00" cType="1"     res="    -6.196080E-02" rms="0.0e-00"     purity="0.00000000E+00" nType="-99">
                </Node>
            </Node>
            <Node pos="r" depth="3" NCoef="0"     IVar="0" Cut="     1.238600E+02" cType="1"     res="     0.000000E+00" rms="0.0"     purity="0.00000000E+00" nType="0">
                <Node pos="l" depth="4" NCoef="0"     IVar="-1" Cut="     0.000000E+00" cType="1"     res="    -3.800570E-02" rms="0.0e-00"     purity="0.00000000E+00" nType="-99">
                </Node>
                <Node pos="r" depth="4" NCoef="0"     IVar="-1" Cut="     0.000000E+00" cType="1"     res="    -9.383660E-02" rms="0.0e-00"     purity="0.00000000E+00" nType="-99">
                </Node>
            </Node>
        </Node>
    </Node>
</BinaryTree>
<BinaryTree type="DecisionTree" boostWeight="0.0" itree="26">
    <Node pos="c" depth="1" NCoef="0"     IVar="4" Cut="     8.736530E-01" cType="1"     res="     0.000000E+00" rms="0.0"     purity="0.00000000E+00" nType="0">
        <Node pos="l" depth="2" NCoef="0"     IVar="2" Cut="     2.413630E+00" cType="1"     res="     0.000000E+00" rms="0.0"     purity="0.00000000E+00" nType="0">
            <Node pos="l" depth="3" NCoef="0"     IVar="3" Cut="     1.483360E+00" cType="1"     res="     0.000000E+00" rms="0.0"     purity="0.00000000E+00" nType="0">
                <Node pos="l" depth="4" NCoef="0"     IVar="-1" Cut="     0.000000E+00" cType="1"     res="     4.684900E-02" rms="0.0e-00"     purity="0.00000000E+00" nType="-99">
                </Node>
                <Node pos="r" depth="4" NCoef="0"     IVar="-1" Cut="     0.000000E+00" cType="1"     res="     1.423610E-03" rms="0.0e-00"     purity="0.00000000E+00" nType="-99">
                </Node>
            </Node>
            <Node pos="r" depth="3" NCoef="0"     IVar="0" Cut="     2.913030E+01" cType="1"     res="     0.000000E+00" rms="0.0"     purity="0.00000000E+00" nType="0">
                <Node pos="l" depth="4" NCoef="0"     IVar="-1" Cut="     0.000000E+00" cType="1"     res="    -7.233340E-03" rms="0.0e-00"     purity="0.00000000E+00" nType="-99">
                </Node>
                <Node pos="r" depth="4" NCoef="0"     IVar="-1" Cut="     0.000000E+00" cType="1"     res="    -6.958780E-02" rms="0.0e-00"     purity="0.00000000E+00" nType="-99">
                </Node>
            </Node>
        </Node>
        <Node pos="r" depth="2" NCoef="0"     IVar="4" Cut="     9.774530E-01" cType="1"     res="     0.000000E+00" rms="0.0"     purity="0.00000000E+00" nType="0">
            <Node pos="l" depth="3" NCoef="0"     IVar="4" Cut="     9.774490E-01" cType="1"     res="     0.000000E+00" rms="0.0"     purity="0.00000000E+00" nType="0">
                <Node pos="l" depth="4" NCoef="0"     IVar="-1" Cut="     0.000000E+00" cType="1"     res="    -6.550900E-02" rms="0.0e-00"     purity="0.00000000E+00" nType="-99">
                </Node>
                <Node pos="r" depth="4" NCoef="0"     IVar="-1" Cut="     0.000000E+00" cType="1"     res="     7.487490E-01" rms="0.0e-00"     purity="0.00000000E+00" nType="-99">
                </Node>
            </Node>
            <Node pos="r" depth="3" NCoef="0"     IVar="3" Cut="     1.032380E+00" cType="1"     res="     0.000000E+00" rms="0.0"     purity="0.00000000E+00" nType="0">
                <Node pos="l" depth="4" NCoef="0"     IVar="-1" Cut="     0.000000E+00" cType="1"     res="    -1.980210E-02" rms="0.0e-00"     purity="0.00000000E+00" nType="-99">
                </Node>
                <Node pos="r" depth="4" NCoef="0"     IVar="-1" Cut="     0.000000E+00" cType="1"     res="    -1.070810E-01" rms="0.0e-00"     purity="0.00000000E+00" nType="-99">
                </Node>
            </Node>
        </Node>
    </Node>
</BinaryTree>
<BinaryTree type="DecisionTree" boostWeight="0.0" itree="27">
    <Node pos="c" depth="1" NCoef="0"     IVar="4" Cut="     8.912190E-01" cType="1"     res="     0.000000E+00" rms="0.0"     purity="0.00000000E+00" nType="0">
        <Node pos="l" depth="2" NCoef="0"     IVar="3" Cut="     3.336370E+00" cType="1"     res="     0.000000E+00" rms="0.0"     purity="0.00000000E+00" nType="0">
            <Node pos="l" depth="3" NCoef="0"     IVar="2" Cut="     7.074140E-01" cType="1"     res="     0.000000E+00" rms="0.0"     purity="0.00000000E+00" nType="0">
                <Node pos="l" depth="4" NCoef="0"     IVar="-1" Cut="     0.000000E+00" cType="1"     res="     3.860340E-02" rms="0.0e-00"     purity="0.00000000E+00" nType="-99">
                </Node>
                <Node pos="r" depth="4" NCoef="0"     IVar="-1" Cut="     0.000000E+00" cType="1"     res="    -2.416800E-05" rms="0.0e-00"     purity="0.00000000E+00" nType="-99">
                </Node>
            </Node>
            <Node pos="r" depth="3" NCoef="0"     IVar="3" Cut="     4.121950E+00" cType="1"     res="     0.000000E+00" rms="0.0"     purity="0.00000000E+00" nType="0">
                <Node pos="l" depth="4" NCoef="0"     IVar="-1" Cut="     0.000000E+00" cType="1"     res="    -4.154070E-02" rms="0.0e-00"     purity="0.00000000E+00" nType="-99">
                </Node>
                <Node pos="r" depth="4" NCoef="0"     IVar="-1" Cut="     0.000000E+00" cType="1"     res="    -1.067430E-01" rms="0.0e-00"     purity="0.00000000E+00" nType="-99">
                </Node>
            </Node>
        </Node>
        <Node pos="r" depth="2" NCoef="0"     IVar="4" Cut="     9.774530E-01" cType="1"     res="     0.000000E+00" rms="0.0"     purity="0.00000000E+00" nType="0">
            <Node pos="l" depth="3" NCoef="0"     IVar="4" Cut="     9.774490E-01" cType="1"     res="     0.000000E+00" rms="0.0"     purity="0.00000000E+00" nType="0">
                <Node pos="l" depth="4" NCoef="0"     IVar="-1" Cut="     0.000000E+00" cType="1"     res="    -6.656270E-02" rms="0.0e-00"     purity="0.00000000E+00" nType="-99">
                </Node>
                <Node pos="r" depth="4" NCoef="0"     IVar="-1" Cut="     0.000000E+00" cType="1"     res="     4.791920E-01" rms="0.0e-00"     purity="0.00000000E+00" nType="-99">
                </Node>
            </Node>
            <Node pos="r" depth="3" NCoef="0"     IVar="3" Cut="     1.032380E+00" cType="1"     res="     0.000000E+00" rms="0.0"     purity="0.00000000E+00" nType="0">
                <Node pos="l" depth="4" NCoef="0"     IVar="-1" Cut="     0.000000E+00" cType="1"     res="    -1.823460E-02" rms="0.0e-00"     purity="0.00000000E+00" nType="-99">
                </Node>
                <Node pos="r" depth="4" NCoef="0"     IVar="-1" Cut="     0.000000E+00" cType="1"     res="    -1.056360E-01" rms="0.0e-00"     purity="0.00000000E+00" nType="-99">
                </Node>
            </Node>
        </Node>
    </Node>
</BinaryTree>
<BinaryTree type="DecisionTree" boostWeight="0.0" itree="28">
    <Node pos="c" depth="1" NCoef="0"     IVar="2" Cut="     2.004680E+00" cType="1"     res="     0.000000E+00" rms="0.0"     purity="0.00000000E+00" nType="0">
        <Node pos="l" depth="2" NCoef="0"     IVar="0" Cut="     1.244590E+02" cType="1"     res="     0.000000E+00" rms="0.0"     purity="0.00000000E+00" nType="0">
            <Node pos="l" depth="3" NCoef="0"     IVar="1" Cut="     1.475160E-01" cType="1"     res="     0.000000E+00" rms="0.0"     purity="0.00000000E+00" nType="0">
                <Node pos="l" depth="4" NCoef="0"     IVar="-1" Cut="     0.000000E+00" cType="1"     res="    -2.851870E-02" rms="0.0e-00"     purity="0.00000000E+00" nType="-99">
                </Node>
                <Node pos="r" depth="4" NCoef="0"     IVar="-1" Cut="     0.000000E+00" cType="1"     res="     1.847370E-02" rms="0.0e-00"     purity="0.00000000E+00" nType="-99">
                </Node>
            </Node>
            <Node pos="r" depth="3" NCoef="0"     IVar="2" Cut="     6.003600E-01" cType="1"     res="     0.000000E+00" rms="0.0"     purity="0.00000000E+00" nType="0">
                <Node pos="l" depth="4" NCoef="0"     IVar="-1" Cut="     0.000000E+00" cType="1"     res="     2.535000E-02" rms="0.0e-00"     purity="0.00000000E+00" nType="-99">
                </Node>
                <Node pos="r" depth="4" NCoef="0"     IVar="-1" Cut="     0.000000E+00" cType="1"     res="    -5.851840E-02" rms="0.0e-00"     purity="0.00000000E+00" nType="-99">
                </Node>
            </Node>
        </Node>
        <Node pos="r" depth="2" NCoef="0"     IVar="0" Cut="     6.207000E+01" cType="1"     res="     0.000000E+00" rms="0.0"     purity="0.00000000E+00" nType="0">
            <Node pos="l" depth="3" NCoef="0"     IVar="2" Cut="     2.571330E+00" cType="1"     res="     0.000000E+00" rms="0.0"     purity="0.00000000E+00" nType="0">
                <Node pos="l" depth="4" NCoef="0"     IVar="-1" Cut="     0.000000E+00" cType="1"     res="    -9.799140E-03" rms="0.0e-00"     purity="0.00000000E+00" nType="-99">
                </Node>
                <Node pos="r" depth="4" NCoef="0"     IVar="-1" Cut="     0.000000E+00" cType="1"     res="    -5.227180E-02" rms="0.0e-00"     purity="0.00000000E+00" nType="-99">
                </Node>
            </Node>
            <Node pos="r" depth="3" NCoef="0"     IVar="2" Cut="     2.591390E+00" cType="1"     res="     0.000000E+00" rms="0.0"     purity="0.00000000E+00" nType="0">
                <Node pos="l" depth="4" NCoef="0"     IVar="-1" Cut="     0.000000E+00" cType="1"     res="    -6.739110E-02" rms="0.0e-00"     purity="0.00000000E+00" nType="-99">
                </Node>
                <Node pos="r" depth="4" NCoef="0"     IVar="-1" Cut="     0.000000E+00" cType="1"     res="    -9.858080E-02" rms="0.0e-00"     purity="0.00000000E+00" nType="-99">
                </Node>
            </Node>
        </Node>
    </Node>
</BinaryTree>
<BinaryTree type="DecisionTree" boostWeight="0.0" itree="29">
    <Node pos="c" depth="1" NCoef="0"     IVar="4" Cut="     8.444320E-01" cType="1"     res="     0.000000E+00" rms="0.0"     purity="0.00000000E+00" nType="0">
        <Node pos="l" depth="2" NCoef="0"     IVar="0" Cut="     2.473920E+02" cType="1"     res="     0.000000E+00" rms="0.0"     purity="0.00000000E+00" nType="0">
            <Node pos="l" depth="3" NCoef="0"     IVar="2" Cut="     7.385960E-01" cType="1"     res="     0.000000E+00" rms="0.0"     purity="0.00000000E+00" nType="0">
                <Node pos="l" depth="4" NCoef="0"     IVar="-1" Cut="     0.000000E+00" cType="1"     res="     3.438040E-02" rms="0.0e-00"     purity="0.00000000E+00" nType="-99">
                </Node>
                <Node pos="r" depth="4" NCoef="0"     IVar="-1" Cut="     0.000000E+00" cType="1"     res="    -2.438400E-03" rms="0.0e-00"     purity="0.00000000E+00" nType="-99">
                </Node>
            </Node>
            <Node pos="r" depth="3" NCoef="0"     IVar="2" Cut="     7.510460E-01" cType="1"     res="     0.000000E+00" rms="0.0"     purity="0.00000000E+00" nType="0">
                <Node pos="l" depth="4" NCoef="0"     IVar="-1" Cut="     0.000000E+00" cType="1"     res="    -5.542190E-02" rms="0.0e-00"     purity="0.00000000E+00" nType="-99">
                </Node>
                <Node pos="r" depth="4" NCoef="0"     IVar="-1" Cut="     0.000000E+00" cType="1"     res="    -1.063390E-01" rms="0.0e-00"     purity="0.00000000E+00" nType="-99">
                </Node>
            </Node>
        </Node>
        <Node pos="r" depth="2" NCoef="0"     IVar="4" Cut="     9.774530E-01" cType="1"     res="     0.000000E+00" rms="0.0"     purity="0.00000000E+00" nType="0">
            <Node pos="l" depth="3" NCoef="0"     IVar="2" Cut="     1.315460E+00" cType="1"     res="     0.000000E+00" rms="0.0"     purity="0.00000000E+00" nType="0">
                <Node pos="l" depth="4" NCoef="0"     IVar="-1" Cut="     0.000000E+00" cType="1"     res="    -2.546410E-02" rms="0.0e-00"     purity="0.00000000E+00" nType="-99">
                </Node>
                <Node pos="r" depth="4" NCoef="0"     IVar="-1" Cut="     0.000000E+00" cType="1"     res="    -8.387620E-02" rms="0.0e-00"     purity="0.00000000E+00" nType="-99">
                </Node>
            </Node>
            <Node pos="r" depth="3" NCoef="0"     IVar="3" Cut="     1.032380E+00" cType="1"     res="     0.000000E+00" rms="0.0"     purity="0.00000000E+00" nType="0">
                <Node pos="l" depth="4" NCoef="0"     IVar="-1" Cut="     0.000000E+00" cType="1"     res="    -1.684820E-02" rms="0.0e-00"     purity="0.00000000E+00" nType="-99">
                </Node>
                <Node pos="r" depth="4" NCoef="0"     IVar="-1" Cut="     0.000000E+00" cType="1"     res="    -1.042600E-01" rms="0.0e-00"     purity="0.00000000E+00" nType="-99">
                </Node>
            </Node>
        </Node>
    </Node>
</BinaryTree>
<BinaryTree type="DecisionTree" boostWeight="0.0" itree="30">
    <Node pos="c" depth="1" NCoef="0"     IVar="3" Cut="     2.106410E+00" cType="1"     res="     0.000000E+00" rms="0.0"     purity="0.00000000E+00" nType="0">
        <Node pos="l" depth="2" NCoef="0"     IVar="0" Cut="     7.954680E+01" cType="1"     res="     0.000000E+00" rms="0.0"     purity="0.00000000E+00" nType="0">
            <Node pos="l" depth="3" NCoef="0"     IVar="1" Cut="     4.913450E-01" cType="1"     res="     0.000000E+00" rms="0.0"     purity="0.00000000E+00" nType="0">
                <Node pos="l" depth="4" NCoef="0"     IVar="-1" Cut="     0.000000E+00" cType="1"     res="     8.355220E-03" rms="0.0e-00"     purity="0.00000000E+00" nType="-99">
                </Node>
                <Node pos="r" depth="4" NCoef="0"     IVar="-1" Cut="     0.000000E+00" cType="1"     res="     4.081100E-02" rms="0.0e-00"     purity="0.00000000E+00" nType="-99">
                </Node>
            </Node>
            <Node pos="r" depth="3" NCoef="0"     IVar="2" Cut="     7.074510E-01" cType="1"     res="     0.000000E+00" rms="0.0"     purity="0.00000000E+00" nType="0">
                <Node pos="l" depth="4" NCoef="0"     IVar="-1" Cut="     0.000000E+00" cType="1"     res="     2.940570E-02" rms="0.0e-00"     purity="0.00000000E+00" nType="-99">
                </Node>
                <Node pos="r" depth="4" NCoef="0"     IVar="-1" Cut="     0.000000E+00" cType="1"     res="    -2.882520E-02" rms="0.0e-00"     purity="0.00000000E+00" nType="-99">
                </Node>
            </Node>
        </Node>
        <Node pos="r" depth="2" NCoef="0"     IVar="4" Cut="     8.262610E-01" cType="1"     res="     0.000000E+00" rms="0.0"     purity="0.00000000E+00" nType="0">
            <Node pos="l" depth="3" NCoef="0"     IVar="3" Cut="     3.581950E+00" cType="1"     res="     0.000000E+00" rms="0.0"     purity="0.00000000E+00" nType="0">
                <Node pos="l" depth="4" NCoef="0"     IVar="-1" Cut="     0.000000E+00" cType="1"     res="    -3.444000E-03" rms="0.0e-00"     purity="0.00000000E+00" nType="-99">
                </Node>
                <Node pos="r" depth="4" NCoef="0"     IVar="-1" Cut="     0.000000E+00" cType="1"     res="    -6.303810E-02" rms="0.0e-00"     purity="0.00000000E+00" nType="-99">
                </Node>
            </Node>
            <Node pos="r" depth="3" NCoef="0"     IVar="4" Cut="     9.660590E-01" cType="1"     res="     0.000000E+00" rms="0.0"     purity="0.00000000E+00" nType="0">
                <Node pos="l" depth="4" NCoef="0"     IVar="-1" Cut="     0.000000E+00" cType="1"     res="    -6.083350E-02" rms="0.0e-00"     purity="0.00000000E+00" nType="-99">
                </Node>
                <Node pos="r" depth="4" NCoef="0"     IVar="-1" Cut="     0.000000E+00" cType="1"     res="    -1.029660E-01" rms="0.0e-00"     purity="0.00000000E+00" nType="-99">
                </Node>
            </Node>
        </Node>
    </Node>
</BinaryTree>
<BinaryTree type="DecisionTree" boostWeight="0.0" itree="31">
    <Node pos="c" depth="1" NCoef="0"     IVar="4" Cut="     9.147980E-01" cType="1"     res="     0.000000E+00" rms="0.0"     purity="0.00000000E+00" nType="0">
        <Node pos="l" depth="2" NCoef="0"     IVar="3" Cut="     3.173020E+00" cType="1"     res="     0.000000E+00" rms="0.0"     purity="0.00000000E+00" nType="0">
            <Node pos="l" depth="3" NCoef="0"     IVar="0" Cut="     2.473920E+02" cType="1"     res="     0.000000E+00" rms="0.0"     purity="0.00000000E+00" nType="0">
                <Node pos="l" depth="4" NCoef="0"     IVar="-1" Cut="     0.000000E+00" cType="1"     res="     9.134930E-03" rms="0.0e-00"     purity="0.00000000E+00" nType="-99">
                </Node>
                <Node pos="r" depth="4" NCoef="0"     IVar="-1" Cut="     0.000000E+00" cType="1"     res="    -8.009870E-02" rms="0.0e-00"     purity="0.00000000E+00" nType="-99">
                </Node>
            </Node>
            <Node pos="r" depth="3" NCoef="0"     IVar="3" Cut="     3.853700E+00" cType="1"     res="     0.000000E+00" rms="0.0"     purity="0.00000000E+00" nType="0">
                <Node pos="l" depth="4" NCoef="0"     IVar="-1" Cut="     0.000000E+00" cType="1"     res="    -2.396110E-02" rms="0.0e-00"     purity="0.00000000E+00" nType="-99">
                </Node>
                <Node pos="r" depth="4" NCoef="0"     IVar="-1" Cut="     0.000000E+00" cType="1"     res="    -7.722790E-02" rms="0.0e-00"     purity="0.00000000E+00" nType="-99">
                </Node>
            </Node>
        </Node>
        <Node pos="r" depth="2" NCoef="0"     IVar="4" Cut="     9.774530E-01" cType="1"     res="     0.000000E+00" rms="0.0"     purity="0.00000000E+00" nType="0">
            <Node pos="l" depth="3" NCoef="0"     IVar="4" Cut="     9.757880E-01" cType="1"     res="     0.000000E+00" rms="0.0"     purity="0.00000000E+00" nType="0">
                <Node pos="l" depth="4" NCoef="0"     IVar="-1" Cut="     0.000000E+00" cType="1"     res="    -7.187140E-02" rms="0.0e-00"     purity="0.00000000E+00" nType="-99">
                </Node>
                <Node pos="r" depth="4" NCoef="0"     IVar="-1" Cut="     0.000000E+00" cType="1"     res="     8.202000E-02" rms="0.0e-00"     purity="0.00000000E+00" nType="-99">
                </Node>
            </Node>
            <Node pos="r" depth="3" NCoef="0"     IVar="3" Cut="     1.032380E+00" cType="1"     res="     0.000000E+00" rms="0.0"     purity="0.00000000E+00" nType="0">
                <Node pos="l" depth="4" NCoef="0"     IVar="-1" Cut="     0.000000E+00" cType="1"     res="    -1.664880E-02" rms="0.0e-00"     purity="0.00000000E+00" nType="-99">
                </Node>
                <Node pos="r" depth="4" NCoef="0"     IVar="-1" Cut="     0.000000E+00" cType="1"     res="    -1.020420E-01" rms="0.0e-00"     purity="0.00000000E+00" nType="-99">
                </Node>
            </Node>
        </Node>
    </Node>
</BinaryTree>
<BinaryTree type="DecisionTree" boostWeight="0.0" itree="32">
    <Node pos="c" depth="1" NCoef="0"     IVar="3" Cut="     1.483330E+00" cType="1"     res="     0.000000E+00" rms="0.0"     purity="0.00000000E+00" nType="0">
        <Node pos="l" depth="2" NCoef="0"     IVar="4" Cut="     2.631220E-01" cType="1"     res="     0.000000E+00" rms="0.0"     purity="0.00000000E+00" nType="0">
            <Node pos="l" depth="3" NCoef="0"     IVar="1" Cut="     6.732950E-02" cType="1"     res="     0.000000E+00" rms="0.0"     purity="0.00000000E+00" nType="0">
                <Node pos="l" depth="4" NCoef="0"     IVar="-1" Cut="     0.000000E+00" cType="1"     res="    -1.695490E-02" rms="0.0e-00"     purity="0.00000000E+00" nType="-99">
                </Node>
